digraph Tree {
node [shape=box, fontname="helvetica"] ;
edge [fontname="helvetica"] ;
0 [label="in_blast_zone <= 0.5\nsquared_error = 0.9\nsamples = 17\nvalue = 0.921"] ;
1 [label="move_to__nearest_coin_up <= 0.5\nsquared_error = 0.331\nsamples = 4\nvalue = 2.495"] ;
0 -> 1 [labeldistance=2.5, labelangle=45, headlabel="True"] ;
2 [label="move_to__nearest_coin_right <= 0.5\nsquared_error = 0.148\nsamples = 3\nvalue = 2.766"] ;
1 -> 2 ;
3 [label="move_to__nearest_coin_down <= 0.5\nsquared_error = 0.01\nsamples = 2\nvalue = 2.501"] ;
2 -> 3 ;
4 [label="squared_error = 0.0\nsamples = 1\nvalue = 2.401"] ;
3 -> 4 ;
5 [label="squared_error = 0.0\nsamples = 1\nvalue = 2.6"] ;
3 -> 5 ;
6 [label="squared_error = 0.0\nsamples = 1\nvalue = 3.298"] ;
2 -> 6 ;
7 [label="squared_error = -0.0\nsamples = 1\nvalue = 1.683"] ;
1 -> 7 ;
8 [label="move_to_safety_left <= 0.5\nsquared_error = 0.077\nsamples = 13\nvalue = 0.437"] ;
0 -> 8 [labeldistance=2.5, labelangle=-45, headlabel="False"] ;
9 [label="move_to_safety_down <= 0.5\nsquared_error = 0.027\nsamples = 9\nvalue = 0.317"] ;
8 -> 9 ;
10 [label="move_to__nearest_coin_down <= 0.5\nsquared_error = 0.022\nsamples = 7\nvalue = 0.273"] ;
9 -> 10 ;
11 [label="squared_error = 0.014\nsamples = 5\nvalue = 0.32"] ;
10 -> 11 ;
12 [label="squared_error = 0.022\nsamples = 2\nvalue = 0.156"] ;
10 -> 12 ;
13 [label="move_to__nearest_coin_right <= 0.5\nsquared_error = 0.012\nsamples = 2\nvalue = 0.472"] ;
9 -> 13 ;
14 [label="squared_error = 0.0\nsamples = 1\nvalue = 0.582"] ;
13 -> 14 ;
15 [label="squared_error = -0.0\nsamples = 1\nvalue = 0.361"] ;
13 -> 15 ;
16 [label="move_to__nearest_coin_down <= 0.5\nsquared_error = 0.087\nsamples = 4\nvalue = 0.705"] ;
8 -> 16 ;
17 [label="move_to__nearest_coin_left <= 0.5\nsquared_error = 0.032\nsamples = 3\nvalue = 0.85"] ;
16 -> 17 ;
18 [label="squared_error = 0.007\nsamples = 2\nvalue = 0.733"] ;
17 -> 18 ;
19 [label="squared_error = -0.0\nsamples = 1\nvalue = 1.085"] ;
17 -> 19 ;
20 [label="squared_error = 0.0\nsamples = 1\nvalue = 0.27"] ;
16 -> 20 ;
}