digraph Tree {
node [shape=box, fontname="helvetica"] ;
edge [fontname="helvetica"] ;
0 [label="move_bomb_possible <= 0.5\nsquared_error = 0.118\nsamples = 131\nvalue = 0.047"] ;
1 [label="move_to_nearest_box_down <= 0.5\nsquared_error = 0.013\nsamples = 73\nvalue = -0.243"] ;
0 -> 1 [labeldistance=2.5, labelangle=45, headlabel="True"] ;
2 [label="move_to_safety_right <= 0.5\nsquared_error = 0.007\nsamples = 60\nvalue = -0.276"] ;
1 -> 2 ;
3 [label="squared_error = 0.006\nsamples = 56\nvalue = -0.282"] ;
2 -> 3 ;
4 [label="squared_error = 0.009\nsamples = 4\nvalue = -0.19"] ;
2 -> 4 ;
5 [label="move_up_possible <= 0.5\nsquared_error = 0.015\nsamples = 13\nvalue = -0.09"] ;
1 -> 5 ;
6 [label="squared_error = 0.003\nsamples = 7\nvalue = -0.18"] ;
5 -> 6 ;
7 [label="squared_error = 0.008\nsamples = 6\nvalue = 0.015"] ;
5 -> 7 ;
8 [label="move_down_possible <= 0.5\nsquared_error = 0.012\nsamples = 58\nvalue = 0.411"] ;
0 -> 8 [labeldistance=2.5, labelangle=-45, headlabel="False"] ;
9 [label="move_to_nearest_box_left <= 0.5\nsquared_error = 0.008\nsamples = 31\nvalue = 0.469"] ;
8 -> 9 ;
10 [label="squared_error = 0.003\nsamples = 23\nvalue = 0.497"] ;
9 -> 10 ;
11 [label="squared_error = 0.011\nsamples = 8\nvalue = 0.387"] ;
9 -> 11 ;
12 [label="move_to_nearest_box_right <= 0.5\nsquared_error = 0.008\nsamples = 27\nvalue = 0.344"] ;
8 -> 12 ;
13 [label="squared_error = 0.007\nsamples = 23\nvalue = 0.358"] ;
12 -> 13 ;
14 [label="squared_error = 0.007\nsamples = 4\nvalue = 0.262"] ;
12 -> 14 ;
}