digraph Tree {
node [shape=box, fontname="helvetica"] ;
edge [fontname="helvetica"] ;
0 [label="move_bomb_allowed <= 0.5\nsquared_error = 0.202\nsamples = 153\nvalue = -0.413"] ;
1 [label="move_to_coin_wait <= 0.5\nsquared_error = 0.081\nsamples = 108\nvalue = -0.653"] ;
0 -> 1 [labeldistance=2.5, labelangle=45, headlabel="True"] ;
2 [label="move_to_safety_right <= 0.5\nsquared_error = 0.013\nsamples = 53\nvalue = -0.557"] ;
1 -> 2 ;
3 [label="move_down_allowed <= 0.5\nsquared_error = 0.011\nsamples = 45\nvalue = -0.536"] ;
2 -> 3 ;
4 [label="move_up_allowed <= 0.5\nsquared_error = 0.013\nsamples = 19\nvalue = -0.573"] ;
3 -> 4 ;
5 [label="in_blast_zone <= 0.5\nsquared_error = 0.008\nsamples = 7\nvalue = -0.683"] ;
4 -> 5 ;
6 [label="move_right_allowed <= 0.5\nsquared_error = 0.009\nsamples = 4\nvalue = -0.638"] ;
5 -> 6 ;
7 [label="squared_error = 0.0\nsamples = 1\nvalue = -0.734"] ;
6 -> 7 ;
8 [label="move_left_allowed <= 0.5\nsquared_error = 0.008\nsamples = 3\nvalue = -0.606"] ;
6 -> 8 ;
9 [label="squared_error = 0.0\nsamples = 1\nvalue = -0.705"] ;
8 -> 9 ;
10 [label="move_to_coin_right <= 0.5\nsquared_error = 0.005\nsamples = 2\nvalue = -0.556"] ;
8 -> 10 ;
11 [label="squared_error = 0.0\nsamples = 1\nvalue = -0.489"] ;
10 -> 11 ;
12 [label="squared_error = 0.0\nsamples = 1\nvalue = -0.623"] ;
10 -> 12 ;
13 [label="move_to_coin_left <= 0.5\nsquared_error = 0.0\nsamples = 3\nvalue = -0.744"] ;
5 -> 13 ;
14 [label="squared_error = 0.0\nsamples = 1\nvalue = -0.758"] ;
13 -> 14 ;
15 [label="move_left_allowed <= 0.5\nsquared_error = 0.0\nsamples = 2\nvalue = -0.737"] ;
13 -> 15 ;
16 [label="squared_error = 0.0\nsamples = 1\nvalue = -0.745"] ;
15 -> 16 ;
17 [label="squared_error = 0.0\nsamples = 1\nvalue = -0.729"] ;
15 -> 17 ;
18 [label="move_to_safety_down <= 0.5\nsquared_error = 0.004\nsamples = 12\nvalue = -0.509"] ;
4 -> 18 ;
19 [label="move_to_coin_down <= 0.5\nsquared_error = 0.003\nsamples = 9\nvalue = -0.533"] ;
18 -> 19 ;
20 [label="move_to_coin_right <= 0.5\nsquared_error = 0.003\nsamples = 5\nvalue = -0.563"] ;
19 -> 20 ;
21 [label="move_left_allowed <= 0.5\nsquared_error = 0.003\nsamples = 3\nvalue = -0.543"] ;
20 -> 21 ;
22 [label="move_to_safety_left <= 0.5\nsquared_error = 0.0\nsamples = 2\nvalue = -0.582"] ;
21 -> 22 ;
23 [label="squared_error = 0.0\nsamples = 1\nvalue = -0.57"] ;
22 -> 23 ;
24 [label="squared_error = 0.0\nsamples = 1\nvalue = -0.595"] ;
22 -> 24 ;
25 [label="squared_error = 0.0\nsamples = 1\nvalue = -0.463"] ;
21 -> 25 ;
26 [label="move_right_allowed <= 0.5\nsquared_error = 0.0\nsamples = 2\nvalue = -0.594"] ;
20 -> 26 ;
27 [label="squared_error = 0.0\nsamples = 1\nvalue = -0.591"] ;
26 -> 27 ;
28 [label="squared_error = 0.0\nsamples = 1\nvalue = -0.597"] ;
26 -> 28 ;
29 [label="move_left_allowed <= 0.5\nsquared_error = 0.0\nsamples = 4\nvalue = -0.496"] ;
19 -> 29 ;
30 [label="in_blast_zone <= 0.5\nsquared_error = 0.0\nsamples = 3\nvalue = -0.488"] ;
29 -> 30 ;
31 [label="move_right_allowed <= 0.5\nsquared_error = 0.0\nsamples = 2\nvalue = -0.493"] ;
30 -> 31 ;
32 [label="squared_error = 0.0\nsamples = 1\nvalue = -0.489"] ;
31 -> 32 ;
33 [label="squared_error = -0.0\nsamples = 1\nvalue = -0.497"] ;
31 -> 33 ;
34 [label="squared_error = 0.0\nsamples = 1\nvalue = -0.477"] ;
30 -> 34 ;
35 [label="squared_error = -0.0\nsamples = 1\nvalue = -0.519"] ;
29 -> 35 ;
36 [label="move_left_allowed <= 0.5\nsquared_error = 0.002\nsamples = 3\nvalue = -0.438"] ;
18 -> 36 ;
37 [label="squared_error = 0.0\nsamples = 1\nvalue = -0.466"] ;
36 -> 37 ;
38 [label="move_to_coin_down <= 0.5\nsquared_error = 0.002\nsamples = 2\nvalue = -0.424"] ;
36 -> 38 ;
39 [label="squared_error = 0.0\nsamples = 1\nvalue = -0.466"] ;
38 -> 39 ;
40 [label="squared_error = 0.0\nsamples = 1\nvalue = -0.382"] ;
38 -> 40 ;
41 [label="move_to_coin_down <= 0.5\nsquared_error = 0.007\nsamples = 26\nvalue = -0.509"] ;
3 -> 41 ;
42 [label="move_to_safety_left <= 0.5\nsquared_error = 0.009\nsamples = 19\nvalue = -0.495"] ;
41 -> 42 ;
43 [label="move_up_allowed <= 0.5\nsquared_error = 0.009\nsamples = 15\nvalue = -0.506"] ;
42 -> 43 ;
44 [label="move_to_safety_wait <= 0.5\nsquared_error = 0.006\nsamples = 10\nvalue = -0.526"] ;
43 -> 44 ;
45 [label="move_right_allowed <= 0.5\nsquared_error = 0.0\nsamples = 3\nvalue = -0.464"] ;
44 -> 45 ;
46 [label="move_left_allowed <= 0.5\nsquared_error = 0.0\nsamples = 2\nvalue = -0.46"] ;
45 -> 46 ;
47 [label="squared_error = 0.0\nsamples = 1\nvalue = -0.463"] ;
46 -> 47 ;
48 [label="squared_error = -0.0\nsamples = 1\nvalue = -0.457"] ;
46 -> 48 ;
49 [label="squared_error = 0.0\nsamples = 1\nvalue = -0.473"] ;
45 -> 49 ;
50 [label="move_left_allowed <= 0.5\nsquared_error = 0.006\nsamples = 7\nvalue = -0.552"] ;
44 -> 50 ;
51 [label="move_right_allowed <= 0.5\nsquared_error = 0.005\nsamples = 3\nvalue = -0.587"] ;
50 -> 51 ;
52 [label="squared_error = 0.0\nsamples = 1\nvalue = -0.685"] ;
51 -> 52 ;
53 [label="move_to_coin_up <= 0.5\nsquared_error = 0.001\nsamples = 2\nvalue = -0.537"] ;
51 -> 53 ;
54 [label="squared_error = 0.0\nsamples = 1\nvalue = -0.567"] ;
53 -> 54 ;
55 [label="squared_error = -0.0\nsamples = 1\nvalue = -0.507"] ;
53 -> 55 ;
56 [label="move_right_allowed <= 0.5\nsquared_error = 0.005\nsamples = 4\nvalue = -0.527"] ;
50 -> 56 ;
57 [label="move_to_coin_right <= 0.5\nsquared_error = 0.005\nsamples = 2\nvalue = -0.479"] ;
56 -> 57 ;
58 [label="squared_error = 0.0\nsamples = 1\nvalue = -0.551"] ;
57 -> 58 ;
59 [label="squared_error = 0.0\nsamples = 1\nvalue = -0.408"] ;
57 -> 59 ;
60 [label="move_to_coin_right <= 0.5\nsquared_error = 0.001\nsamples = 2\nvalue = -0.574"] ;
56 -> 60 ;
61 [label="squared_error = 0.0\nsamples = 1\nvalue = -0.537"] ;
60 -> 61 ;
62 [label="squared_error = 0.0\nsamples = 1\nvalue = -0.61"] ;
60 -> 62 ;
63 [label="move_to_safety_wait <= 0.5\nsquared_error = 0.014\nsamples = 5\nvalue = -0.465"] ;
43 -> 63 ;
64 [label="move_right_allowed <= 0.5\nsquared_error = 0.0\nsamples = 3\nvalue = -0.552"] ;
63 -> 64 ;
65 [label="move_to_safety_down <= 0.5\nsquared_error = 0.0\nsamples = 2\nvalue = -0.548"] ;
64 -> 65 ;
66 [label="squared_error = 0.0\nsamples = 1\nvalue = -0.554"] ;
65 -> 66 ;
67 [label="squared_error = 0.0\nsamples = 1\nvalue = -0.541"] ;
65 -> 67 ;
68 [label="squared_error = -0.0\nsamples = 1\nvalue = -0.561"] ;
64 -> 68 ;
69 [label="move_right_allowed <= 0.5\nsquared_error = 0.006\nsamples = 2\nvalue = -0.335"] ;
63 -> 69 ;
70 [label="squared_error = 0.0\nsamples = 1\nvalue = -0.255"] ;
69 -> 70 ;
71 [label="squared_error = 0.0\nsamples = 1\nvalue = -0.416"] ;
69 -> 71 ;
72 [label="move_up_allowed <= 0.5\nsquared_error = 0.006\nsamples = 4\nvalue = -0.457"] ;
42 -> 72 ;
73 [label="move_to_coin_up <= 0.5\nsquared_error = 0.0\nsamples = 3\nvalue = -0.413"] ;
72 -> 73 ;
74 [label="move_left_allowed <= 0.5\nsquared_error = 0.0\nsamples = 2\nvalue = -0.424"] ;
73 -> 74 ;
75 [label="squared_error = 0.0\nsamples = 1\nvalue = -0.425"] ;
74 -> 75 ;
76 [label="squared_error = -0.0\nsamples = 1\nvalue = -0.424"] ;
74 -> 76 ;
77 [label="squared_error = -0.0\nsamples = 1\nvalue = -0.39"] ;
73 -> 77 ;
78 [label="squared_error = 0.0\nsamples = 1\nvalue = -0.589"] ;
72 -> 78 ;
79 [label="move_left_allowed <= 0.5\nsquared_error = 0.0\nsamples = 7\nvalue = -0.546"] ;
41 -> 79 ;
80 [label="move_right_allowed <= 0.5\nsquared_error = 0.0\nsamples = 4\nvalue = -0.538"] ;
79 -> 80 ;
81 [label="move_to_safety_down <= 0.5\nsquared_error = 0.0\nsamples = 3\nvalue = -0.531"] ;
80 -> 81 ;
82 [label="in_blast_zone <= 0.5\nsquared_error = 0.0\nsamples = 2\nvalue = -0.536"] ;
81 -> 82 ;
83 [label="squared_error = 0.0\nsamples = 1\nvalue = -0.541"] ;
82 -> 83 ;
84 [label="squared_error = 0.0\nsamples = 1\nvalue = -0.532"] ;
82 -> 84 ;
85 [label="squared_error = 0.0\nsamples = 1\nvalue = -0.52"] ;
81 -> 85 ;
86 [label="squared_error = -0.0\nsamples = 1\nvalue = -0.559"] ;
80 -> 86 ;
87 [label="move_right_allowed <= 0.5\nsquared_error = 0.0\nsamples = 3\nvalue = -0.556"] ;
79 -> 87 ;
88 [label="in_blast_zone <= 0.5\nsquared_error = 0.0\nsamples = 2\nvalue = -0.566"] ;
87 -> 88 ;
89 [label="squared_error = 0.0\nsamples = 1\nvalue = -0.57"] ;
88 -> 89 ;
90 [label="squared_error = 0.0\nsamples = 1\nvalue = -0.562"] ;
88 -> 90 ;
91 [label="squared_error = -0.0\nsamples = 1\nvalue = -0.537"] ;
87 -> 91 ;
92 [label="move_down_allowed <= 0.5\nsquared_error = 0.01\nsamples = 8\nvalue = -0.676"] ;
2 -> 92 ;
93 [label="move_up_allowed <= 0.5\nsquared_error = 0.004\nsamples = 4\nvalue = -0.758"] ;
92 -> 93 ;
94 [label="move_to_coin_right <= 0.5\nsquared_error = 0.0\nsamples = 3\nvalue = -0.795"] ;
93 -> 94 ;
95 [label="squared_error = 0.0\nsamples = 1\nvalue = -0.788"] ;
94 -> 95 ;
96 [label="move_right_allowed <= 0.5\nsquared_error = 0.0\nsamples = 2\nvalue = -0.799"] ;
94 -> 96 ;
97 [label="squared_error = 0.0\nsamples = 1\nvalue = -0.794"] ;
96 -> 97 ;
98 [label="squared_error = 0.0\nsamples = 1\nvalue = -0.803"] ;
96 -> 98 ;
99 [label="squared_error = 0.0\nsamples = 1\nvalue = -0.647"] ;
93 -> 99 ;
100 [label="move_up_allowed <= 0.5\nsquared_error = 0.002\nsamples = 4\nvalue = -0.594"] ;
92 -> 100 ;
101 [label="move_to_coin_up <= 0.5\nsquared_error = 0.0\nsamples = 3\nvalue = -0.572"] ;
100 -> 101 ;
102 [label="move_right_allowed <= 0.5\nsquared_error = 0.0\nsamples = 2\nvalue = -0.565"] ;
101 -> 102 ;
103 [label="squared_error = 0.0\nsamples = 1\nvalue = -0.545"] ;
102 -> 103 ;
104 [label="squared_error = -0.0\nsamples = 1\nvalue = -0.585"] ;
102 -> 104 ;
105 [label="squared_error = -0.0\nsamples = 1\nvalue = -0.585"] ;
101 -> 105 ;
106 [label="squared_error = -0.0\nsamples = 1\nvalue = -0.661"] ;
100 -> 106 ;
107 [label="move_to_safety_wait <= 0.5\nsquared_error = 0.129\nsamples = 55\nvalue = -0.745"] ;
1 -> 107 ;
108 [label="move_right_allowed <= 0.5\nsquared_error = 0.005\nsamples = 29\nvalue = -0.602"] ;
107 -> 108 ;
109 [label="move_down_allowed <= 0.5\nsquared_error = 0.002\nsamples = 12\nvalue = -0.627"] ;
108 -> 109 ;
110 [label="move_up_allowed <= 0.5\nsquared_error = 0.003\nsamples = 4\nvalue = -0.59"] ;
109 -> 110 ;
111 [label="squared_error = 0.0\nsamples = 1\nvalue = -0.66"] ;
110 -> 111 ;
112 [label="move_left_allowed <= 0.5\nsquared_error = 0.001\nsamples = 3\nvalue = -0.567"] ;
110 -> 112 ;
113 [label="squared_error = 0.0\nsamples = 1\nvalue = -0.607"] ;
112 -> 113 ;
114 [label="move_to_safety_right <= 0.5\nsquared_error = 0.001\nsamples = 2\nvalue = -0.547"] ;
112 -> 114 ;
115 [label="squared_error = 0.0\nsamples = 1\nvalue = -0.515"] ;
114 -> 115 ;
116 [label="squared_error = 0.0\nsamples = 1\nvalue = -0.579"] ;
114 -> 116 ;
117 [label="move_to_safety_right <= 0.5\nsquared_error = 0.001\nsamples = 8\nvalue = -0.645"] ;
109 -> 117 ;
118 [label="move_to_safety_down <= 0.5\nsquared_error = 0.0\nsamples = 6\nvalue = -0.659"] ;
117 -> 118 ;
119 [label="move_up_allowed <= 0.5\nsquared_error = 0.0\nsamples = 4\nvalue = -0.652"] ;
118 -> 119 ;
120 [label="move_left_allowed <= 0.5\nsquared_error = 0.0\nsamples = 2\nvalue = -0.666"] ;
119 -> 120 ;
121 [label="squared_error = 0.0\nsamples = 1\nvalue = -0.676"] ;
120 -> 121 ;
122 [label="squared_error = 0.0\nsamples = 1\nvalue = -0.656"] ;
120 -> 122 ;
123 [label="move_left_allowed <= 0.5\nsquared_error = 0.0\nsamples = 2\nvalue = -0.639"] ;
119 -> 123 ;
124 [label="squared_error = 0.0\nsamples = 1\nvalue = -0.645"] ;
123 -> 124 ;
125 [label="squared_error = 0.0\nsamples = 1\nvalue = -0.633"] ;
123 -> 125 ;
126 [label="move_left_allowed <= 0.5\nsquared_error = 0.0\nsamples = 2\nvalue = -0.673"] ;
118 -> 126 ;
127 [label="squared_error = 0.0\nsamples = 1\nvalue = -0.684"] ;
126 -> 127 ;
128 [label="squared_error = 0.0\nsamples = 1\nvalue = -0.662"] ;
126 -> 128 ;
129 [label="move_up_allowed <= 0.5\nsquared_error = 0.001\nsamples = 2\nvalue = -0.604"] ;
117 -> 129 ;
130 [label="squared_error = 0.0\nsamples = 1\nvalue = -0.577"] ;
129 -> 130 ;
131 [label="squared_error = -0.0\nsamples = 1\nvalue = -0.63"] ;
129 -> 131 ;
132 [label="move_down_allowed <= 0.5\nsquared_error = 0.007\nsamples = 17\nvalue = -0.585"] ;
108 -> 132 ;
133 [label="move_left_allowed <= 0.5\nsquared_error = 0.004\nsamples = 7\nvalue = -0.646"] ;
132 -> 133 ;
134 [label="move_up_allowed <= 0.5\nsquared_error = 0.001\nsamples = 3\nvalue = -0.595"] ;
133 -> 134 ;
135 [label="squared_error = 0.0\nsamples = 1\nvalue = -0.631"] ;
134 -> 135 ;
136 [label="move_to_safety_left <= 0.5\nsquared_error = 0.0\nsamples = 2\nvalue = -0.577"] ;
134 -> 136 ;
137 [label="squared_error = 0.0\nsamples = 1\nvalue = -0.574"] ;
136 -> 137 ;
138 [label="squared_error = -0.0\nsamples = 1\nvalue = -0.58"] ;
136 -> 138 ;
139 [label="move_up_allowed <= 0.5\nsquared_error = 0.004\nsamples = 4\nvalue = -0.684"] ;
133 -> 139 ;
140 [label="move_to_safety_left <= 0.5\nsquared_error = 0.0\nsamples = 2\nvalue = -0.628"] ;
139 -> 140 ;
141 [label="squared_error = 0.0\nsamples = 1\nvalue = -0.641"] ;
140 -> 141 ;
142 [label="squared_error = 0.0\nsamples = 1\nvalue = -0.615"] ;
140 -> 142 ;
143 [label="move_to_safety_left <= 0.5\nsquared_error = 0.001\nsamples = 2\nvalue = -0.74"] ;
139 -> 143 ;
144 [label="squared_error = 0.0\nsamples = 1\nvalue = -0.708"] ;
143 -> 144 ;
145 [label="squared_error = 0.0\nsamples = 1\nvalue = -0.771"] ;
143 -> 145 ;
146 [label="move_left_allowed <= 0.5\nsquared_error = 0.004\nsamples = 10\nvalue = -0.542"] ;
132 -> 146 ;
147 [label="move_to_safety_up <= 0.5\nsquared_error = 0.002\nsamples = 5\nvalue = -0.577"] ;
146 -> 147 ;
148 [label="move_up_allowed <= 0.5\nsquared_error = 0.001\nsamples = 3\nvalue = -0.605"] ;
147 -> 148 ;
149 [label="squared_error = 0.0\nsamples = 1\nvalue = -0.559"] ;
148 -> 149 ;
150 [label="move_to_safety_left <= 0.5\nsquared_error = 0.0\nsamples = 2\nvalue = -0.628"] ;
148 -> 150 ;
151 [label="squared_error = 0.0\nsamples = 1\nvalue = -0.627"] ;
150 -> 151 ;
152 [label="squared_error = -0.0\nsamples = 1\nvalue = -0.63"] ;
150 -> 152 ;
153 [label="move_up_allowed <= 0.5\nsquared_error = 0.001\nsamples = 2\nvalue = -0.536"] ;
147 -> 153 ;
154 [label="squared_error = 0.0\nsamples = 1\nvalue = -0.564"] ;
153 -> 154 ;
155 [label="squared_error = 0.0\nsamples = 1\nvalue = -0.508"] ;
153 -> 155 ;
156 [label="move_to_safety_left <= 0.5\nsquared_error = 0.004\nsamples = 5\nvalue = -0.507"] ;
146 -> 156 ;
157 [label="move_to_safety_right <= 0.5\nsquared_error = 0.002\nsamples = 3\nvalue = -0.551"] ;
156 -> 157 ;
158 [label="move_up_allowed <= 0.5\nsquared_error = 0.001\nsamples = 2\nvalue = -0.572"] ;
157 -> 158 ;
159 [label="squared_error = 0.0\nsamples = 1\nvalue = -0.611"] ;
158 -> 159 ;
160 [label="squared_error = 0.0\nsamples = 1\nvalue = -0.534"] ;
158 -> 160 ;
161 [label="squared_error = 0.0\nsamples = 1\nvalue = -0.508"] ;
157 -> 161 ;
162 [label="move_up_allowed <= 0.5\nsquared_error = 0.0\nsamples = 2\nvalue = -0.44"] ;
156 -> 162 ;
163 [label="squared_error = 0.0\nsamples = 1\nvalue = -0.423"] ;
162 -> 163 ;
164 [label="squared_error = 0.0\nsamples = 1\nvalue = -0.457"] ;
162 -> 164 ;
165 [label="in_blast_zone <= 0.5\nsquared_error = 0.218\nsamples = 26\nvalue = -0.905"] ;
107 -> 165 ;
166 [label="move_down_allowed <= 0.5\nsquared_error = 0.009\nsamples = 16\nvalue = -0.589"] ;
165 -> 166 ;
167 [label="move_left_allowed <= 0.5\nsquared_error = 0.007\nsamples = 8\nvalue = -0.645"] ;
166 -> 167 ;
168 [label="move_up_allowed <= 0.5\nsquared_error = 0.003\nsamples = 4\nvalue = -0.683"] ;
167 -> 168 ;
169 [label="move_right_allowed <= 0.5\nsquared_error = 0.003\nsamples = 2\nvalue = -0.693"] ;
168 -> 169 ;
170 [label="squared_error = 0.0\nsamples = 1\nvalue = -0.638"] ;
169 -> 170 ;
171 [label="squared_error = -0.0\nsamples = 1\nvalue = -0.749"] ;
169 -> 171 ;
172 [label="move_right_allowed <= 0.5\nsquared_error = 0.004\nsamples = 2\nvalue = -0.672"] ;
168 -> 172 ;
173 [label="squared_error = 0.0\nsamples = 1\nvalue = -0.733"] ;
172 -> 173 ;
174 [label="squared_error = 0.0\nsamples = 1\nvalue = -0.611"] ;
172 -> 174 ;
175 [label="move_right_allowed <= 0.5\nsquared_error = 0.007\nsamples = 4\nvalue = -0.608"] ;
167 -> 175 ;
176 [label="move_up_allowed <= 0.5\nsquared_error = 0.002\nsamples = 2\nvalue = -0.679"] ;
175 -> 176 ;
177 [label="squared_error = 0.0\nsamples = 1\nvalue = -0.633"] ;
176 -> 177 ;
178 [label="squared_error = 0.0\nsamples = 1\nvalue = -0.724"] ;
176 -> 178 ;
179 [label="move_up_allowed <= 0.5\nsquared_error = 0.002\nsamples = 2\nvalue = -0.537"] ;
175 -> 179 ;
180 [label="squared_error = 0.0\nsamples = 1\nvalue = -0.491"] ;
179 -> 180 ;
181 [label="squared_error = 0.0\nsamples = 1\nvalue = -0.583"] ;
179 -> 181 ;
182 [label="move_up_allowed <= 0.5\nsquared_error = 0.005\nsamples = 8\nvalue = -0.532"] ;
166 -> 182 ;
183 [label="move_left_allowed <= 0.5\nsquared_error = 0.008\nsamples = 4\nvalue = -0.555"] ;
182 -> 183 ;
184 [label="move_right_allowed <= 0.5\nsquared_error = 0.006\nsamples = 2\nvalue = -0.528"] ;
183 -> 184 ;
185 [label="squared_error = 0.0\nsamples = 1\nvalue = -0.453"] ;
184 -> 185 ;
186 [label="squared_error = 0.0\nsamples = 1\nvalue = -0.602"] ;
184 -> 186 ;
187 [label="move_right_allowed <= 0.5\nsquared_error = 0.009\nsamples = 2\nvalue = -0.582"] ;
183 -> 187 ;
188 [label="squared_error = 0.0\nsamples = 1\nvalue = -0.675"] ;
187 -> 188 ;
189 [label="squared_error = -0.0\nsamples = 1\nvalue = -0.489"] ;
187 -> 189 ;
190 [label="move_right_allowed <= 0.5\nsquared_error = 0.001\nsamples = 4\nvalue = -0.509"] ;
182 -> 190 ;
191 [label="move_left_allowed <= 0.5\nsquared_error = 0.0\nsamples = 2\nvalue = -0.534"] ;
190 -> 191 ;
192 [label="squared_error = 0.0\nsamples = 1\nvalue = -0.524"] ;
191 -> 192 ;
193 [label="squared_error = -0.0\nsamples = 1\nvalue = -0.544"] ;
191 -> 193 ;
194 [label="move_left_allowed <= 0.5\nsquared_error = 0.0\nsamples = 2\nvalue = -0.483"] ;
190 -> 194 ;
195 [label="squared_error = 0.0\nsamples = 1\nvalue = -0.476"] ;
194 -> 195 ;
196 [label="squared_error = 0.0\nsamples = 1\nvalue = -0.491"] ;
194 -> 196 ;
197 [label="move_up_allowed <= 0.5\nsquared_error = 0.137\nsamples = 10\nvalue = -1.41"] ;
165 -> 197 ;
198 [label="move_down_allowed <= 0.5\nsquared_error = 0.145\nsamples = 6\nvalue = -1.391"] ;
197 -> 198 ;
199 [label="move_left_allowed <= 0.5\nsquared_error = 0.123\nsamples = 3\nvalue = -1.206"] ;
198 -> 199 ;
200 [label="squared_error = 0.0\nsamples = 1\nvalue = -1.462"] ;
199 -> 200 ;
201 [label="move_right_allowed <= 0.5\nsquared_error = 0.136\nsamples = 2\nvalue = -1.078"] ;
199 -> 201 ;
202 [label="squared_error = 0.0\nsamples = 1\nvalue = -1.447"] ;
201 -> 202 ;
203 [label="squared_error = 0.0\nsamples = 1\nvalue = -0.709"] ;
201 -> 203 ;
204 [label="move_left_allowed <= 0.5\nsquared_error = 0.097\nsamples = 3\nvalue = -1.576"] ;
198 -> 204 ;
205 [label="move_right_allowed <= 0.5\nsquared_error = 0.106\nsamples = 2\nvalue = -1.461"] ;
204 -> 205 ;
206 [label="squared_error = 0.0\nsamples = 1\nvalue = -1.135"] ;
205 -> 206 ;
207 [label="squared_error = -0.0\nsamples = 1\nvalue = -1.787"] ;
205 -> 207 ;
208 [label="squared_error = 0.0\nsamples = 1\nvalue = -1.806"] ;
204 -> 208 ;
209 [label="move_down_allowed <= 0.5\nsquared_error = 0.125\nsamples = 4\nvalue = -1.439"] ;
197 -> 209 ;
210 [label="move_left_allowed <= 0.5\nsquared_error = 0.005\nsamples = 3\nvalue = -1.64"] ;
209 -> 210 ;
211 [label="move_right_allowed <= 0.5\nsquared_error = 0.001\nsamples = 2\nvalue = -1.594"] ;
210 -> 211 ;
212 [label="squared_error = 0.0\nsamples = 1\nvalue = -1.565"] ;
211 -> 212 ;
213 [label="squared_error = 0.0\nsamples = 1\nvalue = -1.623"] ;
211 -> 213 ;
214 [label="squared_error = -0.0\nsamples = 1\nvalue = -1.733"] ;
210 -> 214 ;
215 [label="squared_error = 0.0\nsamples = 1\nvalue = -0.835"] ;
209 -> 215 ;
216 [label="move_to_coin_wait <= 0.5\nsquared_error = 0.023\nsamples = 45\nvalue = 0.164"] ;
0 -> 216 [labeldistance=2.5, labelangle=-45, headlabel="False"] ;
217 [label="move_to_coin_up <= 0.5\nsquared_error = 0.01\nsamples = 30\nvalue = 0.12"] ;
216 -> 217 ;
218 [label="move_to_coin_left <= 0.5\nsquared_error = 0.006\nsamples = 22\nvalue = 0.104"] ;
217 -> 218 ;
219 [label="move_left_allowed <= 0.5\nsquared_error = 0.006\nsamples = 15\nvalue = 0.085"] ;
218 -> 219 ;
220 [label="move_down_allowed <= 0.5\nsquared_error = 0.005\nsamples = 4\nvalue = 0.065"] ;
219 -> 220 ;
221 [label="move_right_allowed <= 0.5\nsquared_error = 0.0\nsamples = 2\nvalue = 0.029"] ;
220 -> 221 ;
222 [label="squared_error = 0.0\nsamples = 1\nvalue = 0.008"] ;
221 -> 222 ;
223 [label="squared_error = 0.0\nsamples = 1\nvalue = 0.049"] ;
221 -> 223 ;
224 [label="move_right_allowed <= 0.5\nsquared_error = 0.006\nsamples = 2\nvalue = 0.101"] ;
220 -> 224 ;
225 [label="squared_error = 0.0\nsamples = 1\nvalue = 0.182"] ;
224 -> 225 ;
226 [label="squared_error = 0.0\nsamples = 1\nvalue = 0.02"] ;
224 -> 226 ;
227 [label="move_to_coin_right <= 0.5\nsquared_error = 0.006\nsamples = 11\nvalue = 0.093"] ;
219 -> 227 ;
228 [label="move_down_allowed <= 0.5\nsquared_error = 0.007\nsamples = 3\nvalue = 0.14"] ;
227 -> 228 ;
229 [label="move_right_allowed <= 0.5\nsquared_error = 0.007\nsamples = 2\nvalue = 0.175"] ;
228 -> 229 ;
230 [label="squared_error = 0.0\nsamples = 1\nvalue = 0.26"] ;
229 -> 230 ;
231 [label="squared_error = -0.0\nsamples = 1\nvalue = 0.09"] ;
229 -> 231 ;
232 [label="squared_error = -0.0\nsamples = 1\nvalue = 0.07"] ;
228 -> 232 ;
233 [label="move_right_allowed <= 0.5\nsquared_error = 0.005\nsamples = 8\nvalue = 0.075"] ;
227 -> 233 ;
234 [label="move_up_allowed <= 0.5\nsquared_error = 0.003\nsamples = 4\nvalue = 0.062"] ;
233 -> 234 ;
235 [label="move_down_allowed <= 0.5\nsquared_error = 0.0\nsamples = 2\nvalue = 0.027"] ;
234 -> 235 ;
236 [label="squared_error = 0.0\nsamples = 1\nvalue = 0.039"] ;
235 -> 236 ;
237 [label="squared_error = 0.0\nsamples = 1\nvalue = 0.016"] ;
235 -> 237 ;
238 [label="move_down_allowed <= 0.5\nsquared_error = 0.003\nsamples = 2\nvalue = 0.096"] ;
234 -> 238 ;
239 [label="squared_error = 0.0\nsamples = 1\nvalue = 0.038"] ;
238 -> 239 ;
240 [label="squared_error = 0.0\nsamples = 1\nvalue = 0.155"] ;
238 -> 240 ;
241 [label="move_up_allowed <= 0.5\nsquared_error = 0.006\nsamples = 4\nvalue = 0.088"] ;
233 -> 241 ;
242 [label="move_down_allowed <= 0.5\nsquared_error = 0.006\nsamples = 2\nvalue = 0.142"] ;
241 -> 242 ;
243 [label="squared_error = 0.0\nsamples = 1\nvalue = 0.219"] ;
242 -> 243 ;
244 [label="squared_error = -0.0\nsamples = 1\nvalue = 0.064"] ;
242 -> 244 ;
245 [label="move_down_allowed <= 0.5\nsquared_error = 0.0\nsamples = 2\nvalue = 0.035"] ;
241 -> 245 ;
246 [label="squared_error = 0.0\nsamples = 1\nvalue = 0.054"] ;
245 -> 246 ;
247 [label="squared_error = -0.0\nsamples = 1\nvalue = 0.015"] ;
245 -> 247 ;
248 [label="move_up_allowed <= 0.5\nsquared_error = 0.004\nsamples = 7\nvalue = 0.143"] ;
218 -> 248 ;
249 [label="move_left_allowed <= 0.5\nsquared_error = 0.001\nsamples = 4\nvalue = 0.189"] ;
248 -> 249 ;
250 [label="move_down_allowed <= 0.5\nsquared_error = 0.001\nsamples = 2\nvalue = 0.214"] ;
249 -> 250 ;
251 [label="squared_error = 0.0\nsamples = 1\nvalue = 0.189"] ;
250 -> 251 ;
252 [label="squared_error = 0.0\nsamples = 1\nvalue = 0.239"] ;
250 -> 252 ;
253 [label="move_down_allowed <= 0.5\nsquared_error = 0.0\nsamples = 2\nvalue = 0.163"] ;
249 -> 253 ;
254 [label="squared_error = 0.0\nsamples = 1\nvalue = 0.182"] ;
253 -> 254 ;
255 [label="squared_error = 0.0\nsamples = 1\nvalue = 0.144"] ;
253 -> 255 ;
256 [label="move_left_allowed <= 0.5\nsquared_error = 0.0\nsamples = 3\nvalue = 0.081"] ;
248 -> 256 ;
257 [label="move_down_allowed <= 0.5\nsquared_error = 0.0\nsamples = 2\nvalue = 0.072"] ;
256 -> 257 ;
258 [label="squared_error = 0.0\nsamples = 1\nvalue = 0.074"] ;
257 -> 258 ;
259 [label="squared_error = -0.0\nsamples = 1\nvalue = 0.07"] ;
257 -> 259 ;
260 [label="squared_error = 0.0\nsamples = 1\nvalue = 0.1"] ;
256 -> 260 ;
261 [label="move_right_allowed <= 0.5\nsquared_error = 0.019\nsamples = 8\nvalue = 0.166"] ;
217 -> 261 ;
262 [label="move_up_allowed <= 0.5\nsquared_error = 0.023\nsamples = 4\nvalue = 0.211"] ;
261 -> 262 ;
263 [label="move_left_allowed <= 0.5\nsquared_error = 0.015\nsamples = 2\nvalue = 0.143"] ;
262 -> 263 ;
264 [label="squared_error = 0.0\nsamples = 1\nvalue = 0.022"] ;
263 -> 264 ;
265 [label="squared_error = 0.0\nsamples = 1\nvalue = 0.265"] ;
263 -> 265 ;
266 [label="move_left_allowed <= 0.5\nsquared_error = 0.022\nsamples = 2\nvalue = 0.278"] ;
262 -> 266 ;
267 [label="squared_error = 0.0\nsamples = 1\nvalue = 0.427"] ;
266 -> 267 ;
268 [label="squared_error = -0.0\nsamples = 1\nvalue = 0.13"] ;
266 -> 268 ;
269 [label="move_up_allowed <= 0.5\nsquared_error = 0.011\nsamples = 4\nvalue = 0.121"] ;
261 -> 269 ;
270 [label="move_left_allowed <= 0.5\nsquared_error = 0.004\nsamples = 2\nvalue = 0.189"] ;
269 -> 270 ;
271 [label="squared_error = 0.0\nsamples = 1\nvalue = 0.123"] ;
270 -> 271 ;
272 [label="squared_error = 0.0\nsamples = 1\nvalue = 0.255"] ;
270 -> 272 ;
273 [label="move_left_allowed <= 0.5\nsquared_error = 0.01\nsamples = 2\nvalue = 0.054"] ;
269 -> 273 ;
274 [label="squared_error = 0.0\nsamples = 1\nvalue = 0.152"] ;
273 -> 274 ;
275 [label="squared_error = 0.0\nsamples = 1\nvalue = -0.044"] ;
273 -> 275 ;
276 [label="move_left_allowed <= 0.5\nsquared_error = 0.037\nsamples = 15\nvalue = 0.25"] ;
216 -> 276 ;
277 [label="move_right_allowed <= 0.5\nsquared_error = 0.009\nsamples = 7\nvalue = 0.33"] ;
276 -> 277 ;
278 [label="move_up_allowed <= 0.5\nsquared_error = 0.001\nsamples = 3\nvalue = 0.376"] ;
277 -> 278 ;
279 [label="squared_error = 0.0\nsamples = 1\nvalue = 0.412"] ;
278 -> 279 ;
280 [label="move_down_allowed <= 0.5\nsquared_error = 0.0\nsamples = 2\nvalue = 0.358"] ;
278 -> 280 ;
281 [label="squared_error = 0.0\nsamples = 1\nvalue = 0.369"] ;
280 -> 281 ;
282 [label="squared_error = -0.0\nsamples = 1\nvalue = 0.346"] ;
280 -> 282 ;
283 [label="move_up_allowed <= 0.5\nsquared_error = 0.012\nsamples = 4\nvalue = 0.295"] ;
277 -> 283 ;
284 [label="move_down_allowed <= 0.5\nsquared_error = 0.006\nsamples = 2\nvalue = 0.344"] ;
283 -> 284 ;
285 [label="squared_error = 0.0\nsamples = 1\nvalue = 0.423"] ;
284 -> 285 ;
286 [label="squared_error = 0.0\nsamples = 1\nvalue = 0.264"] ;
284 -> 286 ;
287 [label="move_down_allowed <= 0.5\nsquared_error = 0.013\nsamples = 2\nvalue = 0.247"] ;
283 -> 287 ;
288 [label="squared_error = 0.0\nsamples = 1\nvalue = 0.131"] ;
287 -> 288 ;
289 [label="squared_error = 0.0\nsamples = 1\nvalue = 0.363"] ;
287 -> 289 ;
290 [label="move_right_allowed <= 0.5\nsquared_error = 0.051\nsamples = 8\nvalue = 0.18"] ;
276 -> 290 ;
291 [label="move_down_allowed <= 0.5\nsquared_error = 0.055\nsamples = 4\nvalue = 0.108"] ;
290 -> 291 ;
292 [label="move_up_allowed <= 0.5\nsquared_error = 0.055\nsamples = 2\nvalue = 0.105"] ;
291 -> 292 ;
293 [label="squared_error = 0.0\nsamples = 1\nvalue = 0.34"] ;
292 -> 293 ;
294 [label="squared_error = -0.0\nsamples = 1\nvalue = -0.13"] ;
292 -> 294 ;
295 [label="move_up_allowed <= 0.5\nsquared_error = 0.055\nsamples = 2\nvalue = 0.111"] ;
291 -> 295 ;
296 [label="squared_error = 0.0\nsamples = 1\nvalue = -0.123"] ;
295 -> 296 ;
297 [label="squared_error = 0.0\nsamples = 1\nvalue = 0.344"] ;
295 -> 297 ;
298 [label="move_down_allowed <= 0.5\nsquared_error = 0.037\nsamples = 4\nvalue = 0.253"] ;
290 -> 298 ;
299 [label="move_up_allowed <= 0.5\nsquared_error = 0.0\nsamples = 2\nvalue = 0.392"] ;
298 -> 299 ;
300 [label="squared_error = 0.0\nsamples = 1\nvalue = 0.382"] ;
299 -> 300 ;
301 [label="squared_error = 0.0\nsamples = 1\nvalue = 0.402"] ;
299 -> 301 ;
302 [label="move_up_allowed <= 0.5\nsquared_error = 0.035\nsamples = 2\nvalue = 0.113"] ;
298 -> 302 ;
303 [label="squared_error = 0.0\nsamples = 1\nvalue = 0.301"] ;
302 -> 303 ;
304 [label="squared_error = 0.0\nsamples = 1\nvalue = -0.075"] ;
302 -> 304 ;
}