digraph Tree {
node [shape=box, fontname="helvetica"] ;
edge [fontname="helvetica"] ;
0 [label="action_possible <= 0.5\nsquared_error = 4.107\nsamples = 14\nvalue = -3.316"] ;
1 [label="in_blast_zone <= 0.5\nsquared_error = 0.989\nsamples = 9\nvalue = -4.703"] ;
0 -> 1 [labeldistance=2.5, labelangle=45, headlabel="True"] ;
2 [label="boxes_in_range <= 1.5\nsquared_error = 1.091\nsamples = 3\nvalue = -3.903"] ;
1 -> 2 ;
3 [label="squared_error = 0.0\nsamples = 1\nvalue = -5.341"] ;
2 -> 3 ;
4 [label="boxes_in_range <= 2.5\nsquared_error = 0.084\nsamples = 2\nvalue = -3.183"] ;
2 -> 4 ;
5 [label="squared_error = 0.0\nsamples = 1\nvalue = -3.473"] ;
4 -> 5 ;
6 [label="squared_error = 0.0\nsamples = 1\nvalue = -2.893"] ;
4 -> 6 ;
7 [label="boxes_in_range <= 4.5\nsquared_error = 0.457\nsamples = 6\nvalue = -5.104"] ;
1 -> 7 ;
8 [label="boxes_in_range <= 0.5\nsquared_error = 0.123\nsamples = 5\nvalue = -5.37"] ;
7 -> 8 ;
9 [label="squared_error = 0.0\nsamples = 1\nvalue = -4.67"] ;
8 -> 9 ;
10 [label="squared_error = 0.001\nsamples = 4\nvalue = -5.545"] ;
8 -> 10 ;
11 [label="squared_error = 0.0\nsamples = 1\nvalue = -3.773"] ;
7 -> 11 ;
12 [label="boxes_in_range <= 3.5\nsquared_error = 0.014\nsamples = 5\nvalue = -0.818"] ;
0 -> 12 [labeldistance=2.5, labelangle=-45, headlabel="False"] ;
13 [label="boxes_in_range <= 0.5\nsquared_error = 0.008\nsamples = 4\nvalue = -0.861"] ;
12 -> 13 ;
14 [label="squared_error = 0.0\nsamples = 1\nvalue = -0.714"] ;
13 -> 14 ;
15 [label="boxes_in_range <= 2.5\nsquared_error = 0.002\nsamples = 3\nvalue = -0.91"] ;
13 -> 15 ;
16 [label="squared_error = 0.0\nsamples = 2\nvalue = -0.883"] ;
15 -> 16 ;
17 [label="squared_error = 0.0\nsamples = 1\nvalue = -0.964"] ;
15 -> 17 ;
18 [label="squared_error = -0.0\nsamples = 1\nvalue = -0.647"] ;
12 -> 18 ;
}