digraph Tree {
node [shape=box, fontname="helvetica"] ;
edge [fontname="helvetica"] ;
0 [label="move_to_coin_up <= 0.5\nsquared_error = 0.008\nsamples = 4\nvalue = 0.756"] ;
1 [label="move_to_coin_right <= 0.5\nsquared_error = 0.001\nsamples = 3\nvalue = 0.708"] ;
0 -> 1 [labeldistance=2.5, labelangle=45, headlabel="True"] ;
2 [label="squared_error = 0.0\nsamples = 2\nvalue = 0.732"] ;
1 -> 2 ;
3 [label="squared_error = 0.0\nsamples = 1\nvalue = 0.661"] ;
1 -> 3 ;
4 [label="squared_error = -0.0\nsamples = 1\nvalue = 0.901"] ;
0 -> 4 [labeldistance=2.5, labelangle=-45, headlabel="False"] ;
}