digraph Tree {
node [shape=box, fontname="helvetica"] ;
edge [fontname="helvetica"] ;
0 [label="move_up_allowed <= 0.5\nsquared_error = 0.296\nsamples = 159\nvalue = -0.235"] ;
1 [label="in_blast_zone <= 0.5\nsquared_error = 0.081\nsamples = 66\nvalue = -0.733"] ;
0 -> 1 [labeldistance=2.5, labelangle=45, headlabel="True"] ;
2 [label="move_to_coin_right <= 0.5\nsquared_error = 0.014\nsamples = 36\nvalue = -0.634"] ;
1 -> 2 ;
3 [label="move_left_allowed <= 0.5\nsquared_error = 0.014\nsamples = 28\nvalue = -0.613"] ;
2 -> 3 ;
4 [label="move_to_coin_left <= 0.5\nsquared_error = 0.012\nsamples = 14\nvalue = -0.652"] ;
3 -> 4 ;
5 [label="move_bomb_allowed <= 0.5\nsquared_error = 0.008\nsamples = 11\nvalue = -0.613"] ;
4 -> 5 ;
6 [label="move_right_allowed <= 0.5\nsquared_error = 0.006\nsamples = 6\nvalue = -0.567"] ;
5 -> 6 ;
7 [label="move_to_coin_wait <= 0.5\nsquared_error = 0.002\nsamples = 3\nvalue = -0.623"] ;
6 -> 7 ;
8 [label="squared_error = 0.0\nsamples = 1\nvalue = -0.665"] ;
7 -> 8 ;
9 [label="move_down_allowed <= 0.5\nsquared_error = 0.002\nsamples = 2\nvalue = -0.602"] ;
7 -> 9 ;
10 [label="squared_error = 0.0\nsamples = 1\nvalue = -0.644"] ;
9 -> 10 ;
11 [label="squared_error = 0.0\nsamples = 1\nvalue = -0.561"] ;
9 -> 11 ;
12 [label="move_to_coin_wait <= 0.5\nsquared_error = 0.004\nsamples = 3\nvalue = -0.511"] ;
6 -> 12 ;
13 [label="squared_error = 0.0\nsamples = 1\nvalue = -0.423"] ;
12 -> 13 ;
14 [label="move_down_allowed <= 0.5\nsquared_error = 0.0\nsamples = 2\nvalue = -0.556"] ;
12 -> 14 ;
15 [label="squared_error = 0.0\nsamples = 1\nvalue = -0.54"] ;
14 -> 15 ;
16 [label="squared_error = 0.0\nsamples = 1\nvalue = -0.571"] ;
14 -> 16 ;
17 [label="move_to_coin_up <= 0.5\nsquared_error = 0.006\nsamples = 5\nvalue = -0.668"] ;
5 -> 17 ;
18 [label="move_down_allowed <= 0.5\nsquared_error = 0.0\nsamples = 3\nvalue = -0.727"] ;
17 -> 18 ;
19 [label="squared_error = 0.0\nsamples = 1\nvalue = -0.716"] ;
18 -> 19 ;
20 [label="move_right_allowed <= 0.5\nsquared_error = 0.0\nsamples = 2\nvalue = -0.733"] ;
18 -> 20 ;
21 [label="squared_error = 0.0\nsamples = 1\nvalue = -0.735"] ;
20 -> 21 ;
22 [label="squared_error = 0.0\nsamples = 1\nvalue = -0.731"] ;
20 -> 22 ;
23 [label="move_right_allowed <= 0.5\nsquared_error = 0.001\nsamples = 2\nvalue = -0.578"] ;
17 -> 23 ;
24 [label="squared_error = 0.0\nsamples = 1\nvalue = -0.603"] ;
23 -> 24 ;
25 [label="squared_error = -0.0\nsamples = 1\nvalue = -0.554"] ;
23 -> 25 ;
26 [label="move_bomb_allowed <= 0.5\nsquared_error = 0.0\nsamples = 3\nvalue = -0.797"] ;
4 -> 26 ;
27 [label="squared_error = 0.0\nsamples = 1\nvalue = -0.814"] ;
26 -> 27 ;
28 [label="move_down_allowed <= 0.5\nsquared_error = 0.0\nsamples = 2\nvalue = -0.788"] ;
26 -> 28 ;
29 [label="squared_error = 0.0\nsamples = 1\nvalue = -0.782"] ;
28 -> 29 ;
30 [label="squared_error = 0.0\nsamples = 1\nvalue = -0.794"] ;
28 -> 30 ;
31 [label="move_to_coin_left <= 0.5\nsquared_error = 0.013\nsamples = 14\nvalue = -0.573"] ;
3 -> 31 ;
32 [label="move_bomb_allowed <= 0.5\nsquared_error = 0.01\nsamples = 11\nvalue = -0.599"] ;
31 -> 32 ;
33 [label="move_down_allowed <= 0.5\nsquared_error = 0.01\nsamples = 5\nvalue = -0.54"] ;
32 -> 33 ;
34 [label="move_right_allowed <= 0.5\nsquared_error = 0.002\nsamples = 2\nvalue = -0.472"] ;
33 -> 34 ;
35 [label="squared_error = 0.0\nsamples = 1\nvalue = -0.422"] ;
34 -> 35 ;
36 [label="squared_error = 0.0\nsamples = 1\nvalue = -0.522"] ;
34 -> 36 ;
37 [label="move_right_allowed <= 0.5\nsquared_error = 0.01\nsamples = 3\nvalue = -0.586"] ;
33 -> 37 ;
38 [label="move_to_coin_wait <= 0.5\nsquared_error = 0.002\nsamples = 2\nvalue = -0.654"] ;
37 -> 38 ;
39 [label="squared_error = 0.0\nsamples = 1\nvalue = -0.612"] ;
38 -> 39 ;
40 [label="squared_error = 0.0\nsamples = 1\nvalue = -0.696"] ;
38 -> 40 ;
41 [label="squared_error = -0.0\nsamples = 1\nvalue = -0.45"] ;
37 -> 41 ;
42 [label="move_right_allowed <= 0.5\nsquared_error = 0.005\nsamples = 6\nvalue = -0.648"] ;
32 -> 42 ;
43 [label="move_to_coin_wait <= 0.5\nsquared_error = 0.005\nsamples = 3\nvalue = -0.681"] ;
42 -> 43 ;
44 [label="squared_error = 0.0\nsamples = 1\nvalue = -0.592"] ;
43 -> 44 ;
45 [label="move_down_allowed <= 0.5\nsquared_error = 0.002\nsamples = 2\nvalue = -0.726"] ;
43 -> 45 ;
46 [label="squared_error = 0.0\nsamples = 1\nvalue = -0.683"] ;
45 -> 46 ;
47 [label="squared_error = 0.0\nsamples = 1\nvalue = -0.769"] ;
45 -> 47 ;
48 [label="move_down_allowed <= 0.5\nsquared_error = 0.003\nsamples = 3\nvalue = -0.616"] ;
42 -> 48 ;
49 [label="squared_error = 0.0\nsamples = 1\nvalue = -0.673"] ;
48 -> 49 ;
50 [label="move_to_coin_wait <= 0.5\nsquared_error = 0.001\nsamples = 2\nvalue = -0.587"] ;
48 -> 50 ;
51 [label="squared_error = 0.0\nsamples = 1\nvalue = -0.624"] ;
50 -> 51 ;
52 [label="squared_error = 0.0\nsamples = 1\nvalue = -0.55"] ;
50 -> 52 ;
53 [label="move_bomb_allowed <= 0.5\nsquared_error = 0.01\nsamples = 3\nvalue = -0.478"] ;
31 -> 53 ;
54 [label="squared_error = 0.0\nsamples = 1\nvalue = -0.608"] ;
53 -> 54 ;
55 [label="move_down_allowed <= 0.5\nsquared_error = 0.002\nsamples = 2\nvalue = -0.413"] ;
53 -> 55 ;
56 [label="squared_error = 0.0\nsamples = 1\nvalue = -0.372"] ;
55 -> 56 ;
57 [label="squared_error = -0.0\nsamples = 1\nvalue = -0.454"] ;
55 -> 57 ;
58 [label="move_right_allowed <= 0.5\nsquared_error = 0.008\nsamples = 8\nvalue = -0.706"] ;
2 -> 58 ;
59 [label="move_down_allowed <= 0.5\nsquared_error = 0.006\nsamples = 4\nvalue = -0.744"] ;
58 -> 59 ;
60 [label="move_bomb_allowed <= 0.5\nsquared_error = 0.0\nsamples = 2\nvalue = -0.82"] ;
59 -> 60 ;
61 [label="squared_error = 0.0\nsamples = 1\nvalue = -0.805"] ;
60 -> 61 ;
62 [label="squared_error = 0.0\nsamples = 1\nvalue = -0.835"] ;
60 -> 62 ;
63 [label="move_bomb_allowed <= 0.5\nsquared_error = 0.0\nsamples = 2\nvalue = -0.667"] ;
59 -> 63 ;
64 [label="squared_error = 0.0\nsamples = 1\nvalue = -0.664"] ;
63 -> 64 ;
65 [label="squared_error = -0.0\nsamples = 1\nvalue = -0.67"] ;
63 -> 65 ;
66 [label="move_bomb_allowed <= 0.5\nsquared_error = 0.008\nsamples = 4\nvalue = -0.669"] ;
58 -> 66 ;
67 [label="move_down_allowed <= 0.5\nsquared_error = 0.002\nsamples = 2\nvalue = -0.731"] ;
66 -> 67 ;
68 [label="squared_error = 0.0\nsamples = 1\nvalue = -0.684"] ;
67 -> 68 ;
69 [label="squared_error = 0.0\nsamples = 1\nvalue = -0.778"] ;
67 -> 69 ;
70 [label="move_down_allowed <= 0.5\nsquared_error = 0.006\nsamples = 2\nvalue = -0.606"] ;
66 -> 70 ;
71 [label="squared_error = 0.0\nsamples = 1\nvalue = -0.531"] ;
70 -> 71 ;
72 [label="squared_error = 0.0\nsamples = 1\nvalue = -0.681"] ;
70 -> 72 ;
73 [label="move_to_safety_wait <= 0.5\nsquared_error = 0.135\nsamples = 30\nvalue = -0.853"] ;
1 -> 73 ;
74 [label="move_to_coin_wait <= 0.5\nsquared_error = 0.01\nsamples = 24\nvalue = -0.704"] ;
73 -> 74 ;
75 [label="move_down_allowed <= 0.5\nsquared_error = 0.008\nsamples = 12\nvalue = -0.766"] ;
74 -> 75 ;
76 [label="move_right_allowed <= 0.5\nsquared_error = 0.001\nsamples = 5\nvalue = -0.825"] ;
75 -> 76 ;
77 [label="squared_error = 0.0\nsamples = 1\nvalue = -0.866"] ;
76 -> 77 ;
78 [label="move_to_safety_right <= 0.5\nsquared_error = 0.0\nsamples = 4\nvalue = -0.814"] ;
76 -> 78 ;
79 [label="move_left_allowed <= 0.5\nsquared_error = 0.0\nsamples = 2\nvalue = -0.804"] ;
78 -> 79 ;
80 [label="squared_error = 0.0\nsamples = 1\nvalue = -0.81"] ;
79 -> 80 ;
81 [label="squared_error = 0.0\nsamples = 1\nvalue = -0.798"] ;
79 -> 81 ;
82 [label="move_to_coin_right <= 0.5\nsquared_error = 0.0\nsamples = 2\nvalue = -0.825"] ;
78 -> 82 ;
83 [label="squared_error = 0.0\nsamples = 1\nvalue = -0.834"] ;
82 -> 83 ;
84 [label="squared_error = 0.0\nsamples = 1\nvalue = -0.815"] ;
82 -> 84 ;
85 [label="move_to_coin_up <= 0.5\nsquared_error = 0.009\nsamples = 7\nvalue = -0.724"] ;
75 -> 85 ;
86 [label="move_to_safety_up <= 0.5\nsquared_error = 0.002\nsamples = 4\nvalue = -0.647"] ;
85 -> 86 ;
87 [label="move_right_allowed <= 0.5\nsquared_error = 0.0\nsamples = 3\nvalue = -0.624"] ;
86 -> 87 ;
88 [label="squared_error = 0.0\nsamples = 1\nvalue = -0.606"] ;
87 -> 88 ;
89 [label="move_to_coin_right <= 0.5\nsquared_error = 0.0\nsamples = 2\nvalue = -0.633"] ;
87 -> 89 ;
90 [label="squared_error = 0.0\nsamples = 1\nvalue = -0.625"] ;
89 -> 90 ;
91 [label="squared_error = 0.0\nsamples = 1\nvalue = -0.641"] ;
89 -> 91 ;
92 [label="squared_error = -0.0\nsamples = 1\nvalue = -0.714"] ;
86 -> 92 ;
93 [label="move_left_allowed <= 0.5\nsquared_error = 0.0\nsamples = 3\nvalue = -0.827"] ;
85 -> 93 ;
94 [label="move_right_allowed <= 0.5\nsquared_error = 0.0\nsamples = 2\nvalue = -0.841"] ;
93 -> 94 ;
95 [label="squared_error = 0.0\nsamples = 1\nvalue = -0.846"] ;
94 -> 95 ;
96 [label="squared_error = 0.0\nsamples = 1\nvalue = -0.836"] ;
94 -> 96 ;
97 [label="squared_error = -0.0\nsamples = 1\nvalue = -0.8"] ;
93 -> 97 ;
98 [label="move_left_allowed <= 0.5\nsquared_error = 0.004\nsamples = 12\nvalue = -0.641"] ;
74 -> 98 ;
99 [label="move_right_allowed <= 0.5\nsquared_error = 0.001\nsamples = 4\nvalue = -0.595"] ;
98 -> 99 ;
100 [label="squared_error = 0.0\nsamples = 1\nvalue = -0.646"] ;
99 -> 100 ;
101 [label="move_to_safety_left <= 0.5\nsquared_error = 0.001\nsamples = 3\nvalue = -0.579"] ;
99 -> 101 ;
102 [label="squared_error = 0.0\nsamples = 1\nvalue = -0.548"] ;
101 -> 102 ;
103 [label="move_down_allowed <= 0.5\nsquared_error = 0.0\nsamples = 2\nvalue = -0.594"] ;
101 -> 103 ;
104 [label="squared_error = 0.0\nsamples = 1\nvalue = -0.609"] ;
103 -> 104 ;
105 [label="squared_error = 0.0\nsamples = 1\nvalue = -0.58"] ;
103 -> 105 ;
106 [label="move_right_allowed <= 0.5\nsquared_error = 0.004\nsamples = 8\nvalue = -0.664"] ;
98 -> 106 ;
107 [label="move_down_allowed <= 0.5\nsquared_error = 0.002\nsamples = 3\nvalue = -0.627"] ;
106 -> 107 ;
108 [label="squared_error = 0.0\nsamples = 1\nvalue = -0.671"] ;
107 -> 108 ;
109 [label="move_to_safety_up <= 0.5\nsquared_error = 0.002\nsamples = 2\nvalue = -0.605"] ;
107 -> 109 ;
110 [label="squared_error = 0.0\nsamples = 1\nvalue = -0.564"] ;
109 -> 110 ;
111 [label="squared_error = -0.0\nsamples = 1\nvalue = -0.646"] ;
109 -> 111 ;
112 [label="move_down_allowed <= 0.5\nsquared_error = 0.003\nsamples = 5\nvalue = -0.687"] ;
106 -> 112 ;
113 [label="move_to_safety_right <= 0.5\nsquared_error = 0.0\nsamples = 2\nvalue = -0.625"] ;
112 -> 113 ;
114 [label="squared_error = 0.0\nsamples = 1\nvalue = -0.61"] ;
113 -> 114 ;
115 [label="squared_error = 0.0\nsamples = 1\nvalue = -0.641"] ;
113 -> 115 ;
116 [label="move_to_safety_right <= 0.5\nsquared_error = 0.001\nsamples = 3\nvalue = -0.727"] ;
112 -> 116 ;
117 [label="move_to_safety_up <= 0.5\nsquared_error = 0.0\nsamples = 2\nvalue = -0.749"] ;
116 -> 117 ;
118 [label="squared_error = 0.0\nsamples = 1\nvalue = -0.767"] ;
117 -> 118 ;
119 [label="squared_error = 0.0\nsamples = 1\nvalue = -0.73"] ;
117 -> 119 ;
120 [label="squared_error = -0.0\nsamples = 1\nvalue = -0.685"] ;
116 -> 120 ;
121 [label="move_down_allowed <= 0.5\nsquared_error = 0.192\nsamples = 6\nvalue = -1.449"] ;
73 -> 121 ;
122 [label="move_right_allowed <= 0.5\nsquared_error = 0.205\nsamples = 3\nvalue = -1.15"] ;
121 -> 122 ;
123 [label="squared_error = 0.0\nsamples = 1\nvalue = -1.48"] ;
122 -> 123 ;
124 [label="move_left_allowed <= 0.5\nsquared_error = 0.226\nsamples = 2\nvalue = -0.985"] ;
122 -> 124 ;
125 [label="squared_error = 0.0\nsamples = 1\nvalue = -1.46"] ;
124 -> 125 ;
126 [label="squared_error = -0.0\nsamples = 1\nvalue = -0.51"] ;
124 -> 126 ;
127 [label="move_left_allowed <= 0.5\nsquared_error = 0.001\nsamples = 3\nvalue = -1.748"] ;
121 -> 127 ;
128 [label="move_right_allowed <= 0.5\nsquared_error = 0.0\nsamples = 2\nvalue = -1.731"] ;
127 -> 128 ;
129 [label="squared_error = 0.0\nsamples = 1\nvalue = -1.713"] ;
128 -> 129 ;
130 [label="squared_error = 0.0\nsamples = 1\nvalue = -1.75"] ;
128 -> 130 ;
131 [label="squared_error = 0.0\nsamples = 1\nvalue = -1.78"] ;
127 -> 131 ;
132 [label="in_blast_zone <= 0.5\nsquared_error = 0.147\nsamples = 93\nvalue = 0.119"] ;
0 -> 132 [labeldistance=2.5, labelangle=-45, headlabel="False"] ;
133 [label="move_right_allowed <= 0.5\nsquared_error = 0.038\nsamples = 49\nvalue = 0.272"] ;
132 -> 133 ;
134 [label="move_down_allowed <= 0.5\nsquared_error = 0.034\nsamples = 23\nvalue = 0.358"] ;
133 -> 134 ;
135 [label="move_to_coin_wait <= 0.5\nsquared_error = 0.017\nsamples = 10\nvalue = 0.225"] ;
134 -> 135 ;
136 [label="move_bomb_allowed <= 0.5\nsquared_error = 0.017\nsamples = 6\nvalue = 0.162"] ;
135 -> 136 ;
137 [label="move_left_allowed <= 0.5\nsquared_error = 0.019\nsamples = 3\nvalue = 0.233"] ;
136 -> 137 ;
138 [label="squared_error = 0.0\nsamples = 1\nvalue = 0.427"] ;
137 -> 138 ;
139 [label="move_to_coin_down <= 0.5\nsquared_error = 0.001\nsamples = 2\nvalue = 0.136"] ;
137 -> 139 ;
140 [label="squared_error = 0.0\nsamples = 1\nvalue = 0.105"] ;
139 -> 140 ;
141 [label="squared_error = -0.0\nsamples = 1\nvalue = 0.167"] ;
139 -> 141 ;
142 [label="move_left_allowed <= 0.5\nsquared_error = 0.004\nsamples = 3\nvalue = 0.092"] ;
136 -> 142 ;
143 [label="squared_error = 0.0\nsamples = 1\nvalue = 0.005"] ;
142 -> 143 ;
144 [label="move_to_coin_right <= 0.5\nsquared_error = 0.0\nsamples = 2\nvalue = 0.135"] ;
142 -> 144 ;
145 [label="squared_error = 0.0\nsamples = 1\nvalue = 0.151"] ;
144 -> 145 ;
146 [label="squared_error = 0.0\nsamples = 1\nvalue = 0.119"] ;
144 -> 146 ;
147 [label="move_bomb_allowed <= 0.5\nsquared_error = 0.003\nsamples = 4\nvalue = 0.32"] ;
135 -> 147 ;
148 [label="move_left_allowed <= 0.5\nsquared_error = 0.001\nsamples = 2\nvalue = 0.373"] ;
147 -> 148 ;
149 [label="squared_error = 0.0\nsamples = 1\nvalue = 0.406"] ;
148 -> 149 ;
150 [label="squared_error = 0.0\nsamples = 1\nvalue = 0.34"] ;
148 -> 150 ;
151 [label="move_left_allowed <= 0.5\nsquared_error = 0.0\nsamples = 2\nvalue = 0.267"] ;
147 -> 151 ;
152 [label="squared_error = 0.0\nsamples = 1\nvalue = 0.257"] ;
151 -> 152 ;
153 [label="squared_error = 0.0\nsamples = 1\nvalue = 0.277"] ;
151 -> 153 ;
154 [label="move_to_coin_wait <= 0.5\nsquared_error = 0.023\nsamples = 13\nvalue = 0.461"] ;
134 -> 154 ;
155 [label="move_bomb_allowed <= 0.5\nsquared_error = 0.017\nsamples = 9\nvalue = 0.523"] ;
154 -> 155 ;
156 [label="move_to_coin_right <= 0.5\nsquared_error = 0.013\nsamples = 5\nvalue = 0.456"] ;
155 -> 156 ;
157 [label="move_left_allowed <= 0.5\nsquared_error = 0.014\nsamples = 4\nvalue = 0.439"] ;
156 -> 157 ;
158 [label="move_to_coin_up <= 0.5\nsquared_error = 0.011\nsamples = 2\nvalue = 0.475"] ;
157 -> 158 ;
159 [label="squared_error = 0.0\nsamples = 1\nvalue = 0.579"] ;
158 -> 159 ;
160 [label="squared_error = 0.0\nsamples = 1\nvalue = 0.371"] ;
158 -> 160 ;
161 [label="move_to_coin_down <= 0.5\nsquared_error = 0.015\nsamples = 2\nvalue = 0.403"] ;
157 -> 161 ;
162 [label="squared_error = 0.0\nsamples = 1\nvalue = 0.527"] ;
161 -> 162 ;
163 [label="squared_error = -0.0\nsamples = 1\nvalue = 0.28"] ;
161 -> 163 ;
164 [label="squared_error = -0.0\nsamples = 1\nvalue = 0.523"] ;
156 -> 164 ;
165 [label="move_to_coin_right <= 0.5\nsquared_error = 0.01\nsamples = 4\nvalue = 0.606"] ;
155 -> 165 ;
166 [label="move_left_allowed <= 0.5\nsquared_error = 0.009\nsamples = 3\nvalue = 0.572"] ;
165 -> 166 ;
167 [label="move_to_coin_up <= 0.5\nsquared_error = 0.01\nsamples = 2\nvalue = 0.609"] ;
166 -> 167 ;
168 [label="squared_error = 0.0\nsamples = 1\nvalue = 0.707"] ;
167 -> 168 ;
169 [label="squared_error = -0.0\nsamples = 1\nvalue = 0.511"] ;
167 -> 169 ;
170 [label="squared_error = 0.0\nsamples = 1\nvalue = 0.498"] ;
166 -> 170 ;
171 [label="squared_error = 0.0\nsamples = 1\nvalue = 0.707"] ;
165 -> 171 ;
172 [label="move_bomb_allowed <= 0.5\nsquared_error = 0.01\nsamples = 4\nvalue = 0.321"] ;
154 -> 172 ;
173 [label="move_left_allowed <= 0.5\nsquared_error = 0.0\nsamples = 2\nvalue = 0.411"] ;
172 -> 173 ;
174 [label="squared_error = 0.0\nsamples = 1\nvalue = 0.41"] ;
173 -> 174 ;
175 [label="squared_error = -0.0\nsamples = 1\nvalue = 0.412"] ;
173 -> 175 ;
176 [label="move_left_allowed <= 0.5\nsquared_error = 0.003\nsamples = 2\nvalue = 0.231"] ;
172 -> 176 ;
177 [label="squared_error = 0.0\nsamples = 1\nvalue = 0.289"] ;
176 -> 177 ;
178 [label="squared_error = -0.0\nsamples = 1\nvalue = 0.173"] ;
176 -> 178 ;
179 [label="move_left_allowed <= 0.5\nsquared_error = 0.028\nsamples = 26\nvalue = 0.196"] ;
133 -> 179 ;
180 [label="move_to_coin_left <= 0.5\nsquared_error = 0.022\nsamples = 13\nvalue = 0.265"] ;
179 -> 180 ;
181 [label="move_to_coin_up <= 0.5\nsquared_error = 0.014\nsamples = 10\nvalue = 0.321"] ;
180 -> 181 ;
182 [label="move_to_coin_down <= 0.5\nsquared_error = 0.009\nsamples = 8\nvalue = 0.286"] ;
181 -> 182 ;
183 [label="move_down_allowed <= 0.5\nsquared_error = 0.007\nsamples = 4\nvalue = 0.238"] ;
182 -> 183 ;
184 [label="move_bomb_allowed <= 0.5\nsquared_error = 0.0\nsamples = 2\nvalue = 0.314"] ;
183 -> 184 ;
185 [label="squared_error = 0.0\nsamples = 1\nvalue = 0.332"] ;
184 -> 185 ;
186 [label="squared_error = -0.0\nsamples = 1\nvalue = 0.297"] ;
184 -> 186 ;
187 [label="move_bomb_allowed <= 0.5\nsquared_error = 0.001\nsamples = 2\nvalue = 0.161"] ;
183 -> 187 ;
188 [label="squared_error = 0.0\nsamples = 1\nvalue = 0.193"] ;
187 -> 188 ;
189 [label="squared_error = 0.0\nsamples = 1\nvalue = 0.128"] ;
187 -> 189 ;
190 [label="move_down_allowed <= 0.5\nsquared_error = 0.007\nsamples = 4\nvalue = 0.335"] ;
182 -> 190 ;
191 [label="move_bomb_allowed <= 0.5\nsquared_error = 0.002\nsamples = 2\nvalue = 0.301"] ;
190 -> 191 ;
192 [label="squared_error = 0.0\nsamples = 1\nvalue = 0.349"] ;
191 -> 192 ;
193 [label="squared_error = 0.0\nsamples = 1\nvalue = 0.254"] ;
191 -> 193 ;
194 [label="move_bomb_allowed <= 0.5\nsquared_error = 0.01\nsamples = 2\nvalue = 0.369"] ;
190 -> 194 ;
195 [label="squared_error = 0.0\nsamples = 1\nvalue = 0.27"] ;
194 -> 195 ;
196 [label="squared_error = 0.0\nsamples = 1\nvalue = 0.468"] ;
194 -> 196 ;
197 [label="move_bomb_allowed <= 0.5\nsquared_error = 0.009\nsamples = 2\nvalue = 0.46"] ;
181 -> 197 ;
198 [label="squared_error = 0.0\nsamples = 1\nvalue = 0.366"] ;
197 -> 198 ;
199 [label="squared_error = 0.0\nsamples = 1\nvalue = 0.554"] ;
197 -> 199 ;
200 [label="move_bomb_allowed <= 0.5\nsquared_error = 0.002\nsamples = 3\nvalue = 0.079"] ;
180 -> 200 ;
201 [label="squared_error = 0.0\nsamples = 1\nvalue = 0.128"] ;
200 -> 201 ;
202 [label="move_down_allowed <= 0.5\nsquared_error = 0.0\nsamples = 2\nvalue = 0.054"] ;
200 -> 202 ;
203 [label="squared_error = 0.0\nsamples = 1\nvalue = 0.033"] ;
202 -> 203 ;
204 [label="squared_error = -0.0\nsamples = 1\nvalue = 0.075"] ;
202 -> 204 ;
205 [label="move_down_allowed <= 0.5\nsquared_error = 0.026\nsamples = 13\nvalue = 0.128"] ;
179 -> 205 ;
206 [label="move_to_coin_down <= 0.5\nsquared_error = 0.041\nsamples = 6\nvalue = 0.199"] ;
205 -> 206 ;
207 [label="move_to_coin_wait <= 0.5\nsquared_error = 0.011\nsamples = 4\nvalue = 0.131"] ;
206 -> 207 ;
208 [label="move_to_coin_right <= 0.5\nsquared_error = 0.0\nsamples = 2\nvalue = 0.039"] ;
207 -> 208 ;
209 [label="squared_error = 0.0\nsamples = 1\nvalue = 0.047"] ;
208 -> 209 ;
210 [label="squared_error = 0.0\nsamples = 1\nvalue = 0.031"] ;
208 -> 210 ;
211 [label="move_bomb_allowed <= 0.5\nsquared_error = 0.005\nsamples = 2\nvalue = 0.224"] ;
207 -> 211 ;
212 [label="squared_error = 0.0\nsamples = 1\nvalue = 0.291"] ;
211 -> 212 ;
213 [label="squared_error = -0.0\nsamples = 1\nvalue = 0.156"] ;
211 -> 213 ;
214 [label="move_bomb_allowed <= 0.5\nsquared_error = 0.074\nsamples = 2\nvalue = 0.335"] ;
206 -> 214 ;
215 [label="squared_error = 0.0\nsamples = 1\nvalue = 0.062"] ;
214 -> 215 ;
216 [label="squared_error = 0.0\nsamples = 1\nvalue = 0.607"] ;
214 -> 216 ;
217 [label="move_to_coin_right <= 0.5\nsquared_error = 0.004\nsamples = 7\nvalue = 0.066"] ;
205 -> 217 ;
218 [label="move_to_coin_left <= 0.5\nsquared_error = 0.001\nsamples = 6\nvalue = 0.043"] ;
217 -> 218 ;
219 [label="move_to_coin_wait <= 0.5\nsquared_error = 0.001\nsamples = 5\nvalue = 0.03"] ;
218 -> 219 ;
220 [label="move_bomb_allowed <= 0.5\nsquared_error = 0.0\nsamples = 3\nvalue = 0.013"] ;
219 -> 220 ;
221 [label="squared_error = 0.0\nsamples = 1\nvalue = 0.008"] ;
220 -> 221 ;
222 [label="move_to_coin_down <= 0.5\nsquared_error = 0.0\nsamples = 2\nvalue = 0.015"] ;
220 -> 222 ;
223 [label="squared_error = 0.0\nsamples = 1\nvalue = 0.017"] ;
222 -> 223 ;
224 [label="squared_error = 0.0\nsamples = 1\nvalue = 0.013"] ;
222 -> 224 ;
225 [label="move_bomb_allowed <= 0.5\nsquared_error = 0.0\nsamples = 2\nvalue = 0.056"] ;
219 -> 225 ;
226 [label="squared_error = 0.0\nsamples = 1\nvalue = 0.069"] ;
225 -> 226 ;
227 [label="squared_error = 0.0\nsamples = 1\nvalue = 0.044"] ;
225 -> 227 ;
228 [label="squared_error = 0.0\nsamples = 1\nvalue = 0.109"] ;
218 -> 228 ;
229 [label="squared_error = -0.0\nsamples = 1\nvalue = 0.204"] ;
217 -> 229 ;
230 [label="move_to_safety_down <= 0.5\nsquared_error = 0.214\nsamples = 44\nvalue = -0.052"] ;
132 -> 230 ;
231 [label="move_to_safety_wait <= 0.5\nsquared_error = 0.144\nsamples = 22\nvalue = -0.407"] ;
230 -> 231 ;
232 [label="move_down_allowed <= 0.5\nsquared_error = 0.042\nsamples = 18\nvalue = -0.266"] ;
231 -> 232 ;
233 [label="move_to_safety_right <= 0.5\nsquared_error = 0.007\nsamples = 8\nvalue = -0.437"] ;
232 -> 233 ;
234 [label="move_to_coin_left <= 0.5\nsquared_error = 0.004\nsamples = 4\nvalue = -0.375"] ;
233 -> 234 ;
235 [label="move_to_coin_wait <= 0.5\nsquared_error = 0.0\nsamples = 3\nvalue = -0.342"] ;
234 -> 235 ;
236 [label="squared_error = 0.0\nsamples = 1\nvalue = -0.313"] ;
235 -> 236 ;
237 [label="move_left_allowed <= 0.5\nsquared_error = 0.0\nsamples = 2\nvalue = -0.356"] ;
235 -> 237 ;
238 [label="squared_error = 0.0\nsamples = 1\nvalue = -0.351"] ;
237 -> 238 ;
239 [label="squared_error = -0.0\nsamples = 1\nvalue = -0.362"] ;
237 -> 239 ;
240 [label="squared_error = -0.0\nsamples = 1\nvalue = -0.475"] ;
234 -> 240 ;
241 [label="move_to_coin_right <= 0.5\nsquared_error = 0.003\nsamples = 4\nvalue = -0.5"] ;
233 -> 241 ;
242 [label="move_to_coin_down <= 0.5\nsquared_error = 0.001\nsamples = 3\nvalue = -0.525"] ;
241 -> 242 ;
243 [label="move_right_allowed <= 0.5\nsquared_error = 0.001\nsamples = 2\nvalue = -0.507"] ;
242 -> 243 ;
244 [label="squared_error = 0.0\nsamples = 1\nvalue = -0.475"] ;
243 -> 244 ;
245 [label="squared_error = -0.0\nsamples = 1\nvalue = -0.539"] ;
243 -> 245 ;
246 [label="squared_error = -0.0\nsamples = 1\nvalue = -0.561"] ;
242 -> 246 ;
247 [label="squared_error = -0.0\nsamples = 1\nvalue = -0.425"] ;
241 -> 247 ;
248 [label="move_to_safety_up <= 0.5\nsquared_error = 0.028\nsamples = 10\nvalue = -0.129"] ;
232 -> 248 ;
249 [label="move_left_allowed <= 0.5\nsquared_error = 0.015\nsamples = 4\nvalue = -0.221"] ;
248 -> 249 ;
250 [label="move_to_coin_wait <= 0.5\nsquared_error = 0.002\nsamples = 2\nvalue = -0.318"] ;
249 -> 250 ;
251 [label="squared_error = 0.0\nsamples = 1\nvalue = -0.269"] ;
250 -> 251 ;
252 [label="squared_error = -0.0\nsamples = 1\nvalue = -0.366"] ;
250 -> 252 ;
253 [label="move_to_safety_right <= 0.5\nsquared_error = 0.009\nsamples = 2\nvalue = -0.125"] ;
249 -> 253 ;
254 [label="squared_error = 0.0\nsamples = 1\nvalue = -0.03"] ;
253 -> 254 ;
255 [label="squared_error = -0.0\nsamples = 1\nvalue = -0.22"] ;
253 -> 255 ;
256 [label="move_right_allowed <= 0.5\nsquared_error = 0.027\nsamples = 6\nvalue = -0.068"] ;
248 -> 256 ;
257 [label="move_left_allowed <= 0.5\nsquared_error = 0.013\nsamples = 5\nvalue = -0.124"] ;
256 -> 257 ;
258 [label="move_to_coin_wait <= 0.5\nsquared_error = 0.001\nsamples = 3\nvalue = -0.215"] ;
257 -> 258 ;
259 [label="move_to_coin_up <= 0.5\nsquared_error = 0.0\nsamples = 2\nvalue = -0.192"] ;
258 -> 259 ;
260 [label="squared_error = 0.0\nsamples = 1\nvalue = -0.206"] ;
259 -> 260 ;
261 [label="squared_error = 0.0\nsamples = 1\nvalue = -0.179"] ;
259 -> 261 ;
262 [label="squared_error = -0.0\nsamples = 1\nvalue = -0.26"] ;
258 -> 262 ;
263 [label="move_to_coin_wait <= 0.5\nsquared_error = 0.0\nsamples = 2\nvalue = 0.012"] ;
257 -> 263 ;
264 [label="squared_error = 0.0\nsamples = 1\nvalue = 0.007"] ;
263 -> 264 ;
265 [label="squared_error = 0.0\nsamples = 1\nvalue = 0.017"] ;
263 -> 265 ;
266 [label="squared_error = 0.0\nsamples = 1\nvalue = 0.213"] ;
256 -> 266 ;
267 [label="move_down_allowed <= 0.5\nsquared_error = 0.108\nsamples = 4\nvalue = -1.042"] ;
231 -> 267 ;
268 [label="move_left_allowed <= 0.5\nsquared_error = 0.081\nsamples = 3\nvalue = -1.168"] ;
267 -> 268 ;
269 [label="move_right_allowed <= 0.5\nsquared_error = 0.085\nsamples = 2\nvalue = -1.278"] ;
268 -> 269 ;
270 [label="squared_error = 0.0\nsamples = 1\nvalue = -1.57"] ;
269 -> 270 ;
271 [label="squared_error = -0.0\nsamples = 1\nvalue = -0.986"] ;
269 -> 271 ;
272 [label="squared_error = 0.0\nsamples = 1\nvalue = -0.949"] ;
268 -> 272 ;
273 [label="squared_error = 0.0\nsamples = 1\nvalue = -0.665"] ;
267 -> 273 ;
274 [label="move_to_coin_up <= 0.5\nsquared_error = 0.032\nsamples = 22\nvalue = 0.304"] ;
230 -> 274 ;
275 [label="move_right_allowed <= 0.5\nsquared_error = 0.03\nsamples = 20\nvalue = 0.324"] ;
274 -> 275 ;
276 [label="move_to_coin_wait <= 0.5\nsquared_error = 0.054\nsamples = 9\nvalue = 0.373"] ;
275 -> 276 ;
277 [label="move_down_allowed <= 0.5\nsquared_error = 0.073\nsamples = 5\nvalue = 0.351"] ;
276 -> 277 ;
278 [label="move_left_allowed <= 0.5\nsquared_error = 0.055\nsamples = 3\nvalue = 0.301"] ;
277 -> 278 ;
279 [label="squared_error = 0.0\nsamples = 1\nvalue = -0.007"] ;
278 -> 279 ;
280 [label="move_to_coin_right <= 0.5\nsquared_error = 0.011\nsamples = 2\nvalue = 0.455"] ;
278 -> 280 ;
281 [label="squared_error = 0.0\nsamples = 1\nvalue = 0.562"] ;
280 -> 281 ;
282 [label="squared_error = -0.0\nsamples = 1\nvalue = 0.349"] ;
280 -> 282 ;
283 [label="move_left_allowed <= 0.5\nsquared_error = 0.091\nsamples = 2\nvalue = 0.425"] ;
277 -> 283 ;
284 [label="squared_error = 0.0\nsamples = 1\nvalue = 0.728"] ;
283 -> 284 ;
285 [label="squared_error = 0.0\nsamples = 1\nvalue = 0.123"] ;
283 -> 285 ;
286 [label="move_down_allowed <= 0.5\nsquared_error = 0.029\nsamples = 4\nvalue = 0.401"] ;
276 -> 286 ;
287 [label="move_left_allowed <= 0.5\nsquared_error = 0.023\nsamples = 2\nvalue = 0.505"] ;
286 -> 287 ;
288 [label="squared_error = 0.0\nsamples = 1\nvalue = 0.354"] ;
287 -> 288 ;
289 [label="squared_error = 0.0\nsamples = 1\nvalue = 0.655"] ;
287 -> 289 ;
290 [label="move_left_allowed <= 0.5\nsquared_error = 0.014\nsamples = 2\nvalue = 0.298"] ;
286 -> 290 ;
291 [label="squared_error = 0.0\nsamples = 1\nvalue = 0.417"] ;
290 -> 291 ;
292 [label="squared_error = 0.0\nsamples = 1\nvalue = 0.179"] ;
290 -> 292 ;
293 [label="move_left_allowed <= 0.5\nsquared_error = 0.007\nsamples = 11\nvalue = 0.285"] ;
275 -> 293 ;
294 [label="move_to_coin_down <= 0.5\nsquared_error = 0.004\nsamples = 5\nvalue = 0.35"] ;
293 -> 294 ;
295 [label="move_down_allowed <= 0.5\nsquared_error = 0.002\nsamples = 3\nvalue = 0.391"] ;
294 -> 295 ;
296 [label="move_to_coin_left <= 0.5\nsquared_error = 0.001\nsamples = 2\nvalue = 0.422"] ;
295 -> 296 ;
297 [label="squared_error = 0.0\nsamples = 1\nvalue = 0.448"] ;
296 -> 297 ;
298 [label="squared_error = 0.0\nsamples = 1\nvalue = 0.396"] ;
296 -> 298 ;
299 [label="squared_error = 0.0\nsamples = 1\nvalue = 0.328"] ;
295 -> 299 ;
300 [label="move_down_allowed <= 0.5\nsquared_error = 0.001\nsamples = 2\nvalue = 0.288"] ;
294 -> 300 ;
301 [label="squared_error = 0.0\nsamples = 1\nvalue = 0.316"] ;
300 -> 301 ;
302 [label="squared_error = 0.0\nsamples = 1\nvalue = 0.261"] ;
300 -> 302 ;
303 [label="move_to_coin_wait <= 0.5\nsquared_error = 0.003\nsamples = 6\nvalue = 0.23"] ;
293 -> 303 ;
304 [label="move_to_coin_left <= 0.5\nsquared_error = 0.0\nsamples = 4\nvalue = 0.197"] ;
303 -> 304 ;
305 [label="move_to_coin_down <= 0.5\nsquared_error = 0.0\nsamples = 3\nvalue = 0.185"] ;
304 -> 305 ;
306 [label="move_down_allowed <= 0.5\nsquared_error = 0.0\nsamples = 2\nvalue = 0.189"] ;
305 -> 306 ;
307 [label="squared_error = 0.0\nsamples = 1\nvalue = 0.192"] ;
306 -> 307 ;
308 [label="squared_error = -0.0\nsamples = 1\nvalue = 0.186"] ;
306 -> 308 ;
309 [label="squared_error = 0.0\nsamples = 1\nvalue = 0.178"] ;
305 -> 309 ;
310 [label="squared_error = -0.0\nsamples = 1\nvalue = 0.231"] ;
304 -> 310 ;
311 [label="move_down_allowed <= 0.5\nsquared_error = 0.001\nsamples = 2\nvalue = 0.298"] ;
303 -> 311 ;
312 [label="squared_error = 0.0\nsamples = 1\nvalue = 0.33"] ;
311 -> 312 ;
313 [label="squared_error = -0.0\nsamples = 1\nvalue = 0.266"] ;
311 -> 313 ;
314 [label="move_left_allowed <= 0.5\nsquared_error = 0.001\nsamples = 2\nvalue = 0.099"] ;
274 -> 314 ;
315 [label="squared_error = 0.0\nsamples = 1\nvalue = 0.074"] ;
314 -> 315 ;
316 [label="squared_error = 0.0\nsamples = 1\nvalue = 0.124"] ;
314 -> 316 ;
}