digraph Tree {
node [shape=box, fontname="helvetica"] ;
edge [fontname="helvetica"] ;
0 [label="move_left_possible <= 0.5\nsquared_error = 0.165\nsamples = 82\nvalue = 0.042"] ;
1 [label="move_wait_to_death <= 0.5\nsquared_error = 0.139\nsamples = 38\nvalue = -0.215"] ;
0 -> 1 [labeldistance=2.5, labelangle=45, headlabel="True"] ;
2 [label="move_up_to_death <= 0.5\nsquared_error = 0.195\nsamples = 18\nvalue = 0.009"] ;
1 -> 2 ;
3 [label="squared_error = 0.001\nsamples = 16\nvalue = -0.147"] ;
2 -> 3 ;
4 [label="squared_error = 0.003\nsamples = 2\nvalue = 1.255"] ;
2 -> 4 ;
5 [label="move_to_nearest_box_down <= 0.5\nsquared_error = 0.003\nsamples = 20\nvalue = -0.417"] ;
1 -> 5 ;
6 [label="squared_error = 0.001\nsamples = 14\nvalue = -0.445"] ;
5 -> 6 ;
7 [label="squared_error = 0.001\nsamples = 6\nvalue = -0.352"] ;
5 -> 7 ;
8 [label="move_right_to_death <= 0.5\nsquared_error = 0.082\nsamples = 44\nvalue = 0.264"] ;
0 -> 8 [labeldistance=2.5, labelangle=-45, headlabel="False"] ;
9 [label="move_left_to_death <= 0.5\nsquared_error = 0.081\nsamples = 22\nvalue = 0.398"] ;
8 -> 9 ;
10 [label="squared_error = 0.01\nsamples = 21\nvalue = 0.339"] ;
9 -> 10 ;
11 [label="squared_error = 0.0\nsamples = 1\nvalue = 1.623"] ;
9 -> 11 ;
12 [label="move_up_to_death <= 0.5\nsquared_error = 0.047\nsamples = 22\nvalue = 0.13"] ;
8 -> 12 ;
13 [label="squared_error = 0.003\nsamples = 15\nvalue = -0.014"] ;
12 -> 13 ;
14 [label="squared_error = 0.001\nsamples = 7\nvalue = 0.437"] ;
12 -> 14 ;
}