digraph Tree {
node [shape=box, fontname="helvetica"] ;
edge [fontname="helvetica"] ;
0 [label="move_right_allowed <= 0.5\nsquared_error = 0.291\nsamples = 171\nvalue = -0.165"] ;
1 [label="move_to_coin_wait <= 0.5\nsquared_error = 0.091\nsamples = 70\nvalue = -0.65"] ;
0 -> 1 [labeldistance=2.5, labelangle=45, headlabel="True"] ;
2 [label="move_left_allowed <= 0.5\nsquared_error = 0.013\nsamples = 37\nvalue = -0.505"] ;
1 -> 2 ;
3 [label="move_up_allowed <= 0.5\nsquared_error = 0.017\nsamples = 14\nvalue = -0.458"] ;
2 -> 3 ;
4 [label="move_to_safety_up <= 0.5\nsquared_error = 0.006\nsamples = 3\nvalue = -0.57"] ;
3 -> 4 ;
5 [label="move_bomb_allowed <= 0.5\nsquared_error = 0.0\nsamples = 2\nvalue = -0.624"] ;
4 -> 5 ;
6 [label="squared_error = 0.0\nsamples = 1\nvalue = -0.619"] ;
5 -> 6 ;
7 [label="squared_error = 0.0\nsamples = 1\nvalue = -0.63"] ;
5 -> 7 ;
8 [label="squared_error = -0.0\nsamples = 1\nvalue = -0.46"] ;
4 -> 8 ;
9 [label="move_to_safety_up <= 0.5\nsquared_error = 0.016\nsamples = 11\nvalue = -0.427"] ;
3 -> 9 ;
10 [label="move_to_coin_down <= 0.5\nsquared_error = 0.013\nsamples = 9\nvalue = -0.392"] ;
9 -> 10 ;
11 [label="move_to_safety_wait <= 0.5\nsquared_error = 0.019\nsamples = 3\nvalue = -0.35"] ;
10 -> 11 ;
12 [label="squared_error = 0.0\nsamples = 1\nvalue = -0.547"] ;
11 -> 12 ;
13 [label="move_bomb_allowed <= 0.5\nsquared_error = 0.0\nsamples = 2\nvalue = -0.252"] ;
11 -> 13 ;
14 [label="squared_error = 0.0\nsamples = 1\nvalue = -0.243"] ;
13 -> 14 ;
15 [label="squared_error = 0.0\nsamples = 1\nvalue = -0.261"] ;
13 -> 15 ;
16 [label="move_bomb_allowed <= 0.5\nsquared_error = 0.008\nsamples = 6\nvalue = -0.413"] ;
10 -> 16 ;
17 [label="move_to_safety_down <= 0.5\nsquared_error = 0.002\nsamples = 4\nvalue = -0.37"] ;
16 -> 17 ;
18 [label="move_down_allowed <= 0.5\nsquared_error = 0.002\nsamples = 2\nvalue = -0.399"] ;
17 -> 18 ;
19 [label="squared_error = 0.0\nsamples = 1\nvalue = -0.354"] ;
18 -> 19 ;
20 [label="squared_error = -0.0\nsamples = 1\nvalue = -0.445"] ;
18 -> 20 ;
21 [label="move_down_allowed <= 0.5\nsquared_error = 0.0\nsamples = 2\nvalue = -0.341"] ;
17 -> 21 ;
22 [label="squared_error = 0.0\nsamples = 1\nvalue = -0.338"] ;
21 -> 22 ;
23 [label="squared_error = -0.0\nsamples = 1\nvalue = -0.344"] ;
21 -> 23 ;
24 [label="move_down_allowed <= 0.5\nsquared_error = 0.009\nsamples = 2\nvalue = -0.5"] ;
16 -> 24 ;
25 [label="squared_error = 0.0\nsamples = 1\nvalue = -0.408"] ;
24 -> 25 ;
26 [label="squared_error = -0.0\nsamples = 1\nvalue = -0.592"] ;
24 -> 26 ;
27 [label="move_to_coin_down <= 0.5\nsquared_error = 0.0\nsamples = 2\nvalue = -0.583"] ;
9 -> 27 ;
28 [label="squared_error = 0.0\nsamples = 1\nvalue = -0.569"] ;
27 -> 28 ;
29 [label="squared_error = -0.0\nsamples = 1\nvalue = -0.596"] ;
27 -> 29 ;
30 [label="move_to_coin_right <= 0.5\nsquared_error = 0.008\nsamples = 23\nvalue = -0.534"] ;
2 -> 30 ;
31 [label="move_to_safety_right <= 0.5\nsquared_error = 0.005\nsamples = 10\nvalue = -0.512"] ;
30 -> 31 ;
32 [label="move_bomb_allowed <= 0.5\nsquared_error = 0.003\nsamples = 8\nvalue = -0.492"] ;
31 -> 32 ;
33 [label="move_up_allowed <= 0.5\nsquared_error = 0.002\nsamples = 5\nvalue = -0.462"] ;
32 -> 33 ;
34 [label="move_to_safety_wait <= 0.5\nsquared_error = 0.0\nsamples = 2\nvalue = -0.51"] ;
33 -> 34 ;
35 [label="squared_error = 0.0\nsamples = 1\nvalue = -0.505"] ;
34 -> 35 ;
36 [label="squared_error = -0.0\nsamples = 1\nvalue = -0.516"] ;
34 -> 36 ;
37 [label="move_down_allowed <= 0.5\nsquared_error = 0.0\nsamples = 3\nvalue = -0.429"] ;
33 -> 37 ;
38 [label="move_to_safety_wait <= 0.5\nsquared_error = 0.0\nsamples = 2\nvalue = -0.437"] ;
37 -> 38 ;
39 [label="squared_error = 0.0\nsamples = 1\nvalue = -0.436"] ;
38 -> 39 ;
40 [label="squared_error = 0.0\nsamples = 1\nvalue = -0.437"] ;
38 -> 40 ;
41 [label="squared_error = -0.0\nsamples = 1\nvalue = -0.415"] ;
37 -> 41 ;
42 [label="move_to_coin_down <= 0.5\nsquared_error = 0.001\nsamples = 3\nvalue = -0.543"] ;
32 -> 42 ;
43 [label="move_up_allowed <= 0.5\nsquared_error = 0.0\nsamples = 2\nvalue = -0.532"] ;
42 -> 43 ;
44 [label="squared_error = 0.0\nsamples = 1\nvalue = -0.554"] ;
43 -> 44 ;
45 [label="squared_error = 0.0\nsamples = 1\nvalue = -0.509"] ;
43 -> 45 ;
46 [label="squared_error = 0.0\nsamples = 1\nvalue = -0.565"] ;
42 -> 46 ;
47 [label="move_to_coin_down <= 0.5\nsquared_error = 0.006\nsamples = 2\nvalue = -0.593"] ;
31 -> 47 ;
48 [label="squared_error = 0.0\nsamples = 1\nvalue = -0.515"] ;
47 -> 48 ;
49 [label="squared_error = 0.0\nsamples = 1\nvalue = -0.671"] ;
47 -> 49 ;
50 [label="move_down_allowed <= 0.5\nsquared_error = 0.01\nsamples = 13\nvalue = -0.55"] ;
30 -> 50 ;
51 [label="move_up_allowed <= 0.5\nsquared_error = 0.007\nsamples = 7\nvalue = -0.588"] ;
50 -> 51 ;
52 [label="move_to_safety_right <= 0.5\nsquared_error = 0.003\nsamples = 3\nvalue = -0.665"] ;
51 -> 52 ;
53 [label="move_bomb_allowed <= 0.5\nsquared_error = 0.0\nsamples = 2\nvalue = -0.703"] ;
52 -> 53 ;
54 [label="squared_error = 0.0\nsamples = 1\nvalue = -0.713"] ;
53 -> 54 ;
55 [label="squared_error = 0.0\nsamples = 1\nvalue = -0.693"] ;
53 -> 55 ;
56 [label="squared_error = -0.0\nsamples = 1\nvalue = -0.588"] ;
52 -> 56 ;
57 [label="move_bomb_allowed <= 0.5\nsquared_error = 0.003\nsamples = 4\nvalue = -0.53"] ;
51 -> 57 ;
58 [label="in_blast_zone <= 0.5\nsquared_error = 0.001\nsamples = 3\nvalue = -0.557"] ;
57 -> 58 ;
59 [label="squared_error = 0.0\nsamples = 1\nvalue = -0.587"] ;
58 -> 59 ;
60 [label="move_to_safety_down <= 0.5\nsquared_error = 0.0\nsamples = 2\nvalue = -0.542"] ;
58 -> 60 ;
61 [label="squared_error = 0.0\nsamples = 1\nvalue = -0.555"] ;
60 -> 61 ;
62 [label="squared_error = -0.0\nsamples = 1\nvalue = -0.529"] ;
60 -> 62 ;
63 [label="squared_error = -0.0\nsamples = 1\nvalue = -0.448"] ;
57 -> 63 ;
64 [label="move_up_allowed <= 0.5\nsquared_error = 0.009\nsamples = 6\nvalue = -0.507"] ;
50 -> 64 ;
65 [label="move_bomb_allowed <= 0.5\nsquared_error = 0.004\nsamples = 3\nvalue = -0.422"] ;
64 -> 65 ;
66 [label="move_to_safety_right <= 0.5\nsquared_error = 0.0\nsamples = 2\nvalue = -0.463"] ;
65 -> 66 ;
67 [label="squared_error = 0.0\nsamples = 1\nvalue = -0.474"] ;
66 -> 67 ;
68 [label="squared_error = -0.0\nsamples = 1\nvalue = -0.453"] ;
66 -> 68 ;
69 [label="squared_error = -0.0\nsamples = 1\nvalue = -0.338"] ;
65 -> 69 ;
70 [label="in_blast_zone <= 0.5\nsquared_error = 0.0\nsamples = 3\nvalue = -0.592"] ;
64 -> 70 ;
71 [label="move_bomb_allowed <= 0.5\nsquared_error = 0.0\nsamples = 2\nvalue = -0.595"] ;
70 -> 71 ;
72 [label="squared_error = 0.0\nsamples = 1\nvalue = -0.598"] ;
71 -> 72 ;
73 [label="squared_error = 0.0\nsamples = 1\nvalue = -0.592"] ;
71 -> 73 ;
74 [label="squared_error = 0.0\nsamples = 1\nvalue = -0.587"] ;
70 -> 74 ;
75 [label="move_to_safety_wait <= 0.5\nsquared_error = 0.128\nsamples = 33\nvalue = -0.812"] ;
1 -> 75 ;
76 [label="move_down_allowed <= 0.5\nsquared_error = 0.005\nsamples = 12\nvalue = -0.628"] ;
75 -> 76 ;
77 [label="move_up_allowed <= 0.5\nsquared_error = 0.003\nsamples = 4\nvalue = -0.597"] ;
76 -> 77 ;
78 [label="squared_error = 0.0\nsamples = 1\nvalue = -0.668"] ;
77 -> 78 ;
79 [label="move_left_allowed <= 0.5\nsquared_error = 0.001\nsamples = 3\nvalue = -0.573"] ;
77 -> 79 ;
80 [label="squared_error = 0.0\nsamples = 1\nvalue = -0.608"] ;
79 -> 80 ;
81 [label="move_to_safety_right <= 0.5\nsquared_error = 0.001\nsamples = 2\nvalue = -0.556"] ;
79 -> 81 ;
82 [label="squared_error = 0.0\nsamples = 1\nvalue = -0.519"] ;
81 -> 82 ;
83 [label="squared_error = 0.0\nsamples = 1\nvalue = -0.593"] ;
81 -> 83 ;
84 [label="move_to_safety_up <= 0.5\nsquared_error = 0.005\nsamples = 8\nvalue = -0.643"] ;
76 -> 84 ;
85 [label="move_up_allowed <= 0.5\nsquared_error = 0.005\nsamples = 4\nvalue = -0.68"] ;
84 -> 85 ;
86 [label="squared_error = 0.0\nsamples = 1\nvalue = -0.572"] ;
85 -> 86 ;
87 [label="move_to_safety_right <= 0.5\nsquared_error = 0.001\nsamples = 3\nvalue = -0.716"] ;
85 -> 87 ;
88 [label="move_left_allowed <= 0.5\nsquared_error = 0.0\nsamples = 2\nvalue = -0.69"] ;
87 -> 88 ;
89 [label="squared_error = 0.0\nsamples = 1\nvalue = -0.679"] ;
88 -> 89 ;
90 [label="squared_error = 0.0\nsamples = 1\nvalue = -0.7"] ;
88 -> 90 ;
91 [label="squared_error = 0.0\nsamples = 1\nvalue = -0.767"] ;
87 -> 91 ;
92 [label="move_left_allowed <= 0.5\nsquared_error = 0.003\nsamples = 4\nvalue = -0.607"] ;
84 -> 92 ;
93 [label="move_up_allowed <= 0.5\nsquared_error = 0.0\nsamples = 2\nvalue = -0.649"] ;
92 -> 93 ;
94 [label="squared_error = 0.0\nsamples = 1\nvalue = -0.655"] ;
93 -> 94 ;
95 [label="squared_error = 0.0\nsamples = 1\nvalue = -0.643"] ;
93 -> 95 ;
96 [label="move_up_allowed <= 0.5\nsquared_error = 0.003\nsamples = 2\nvalue = -0.565"] ;
92 -> 96 ;
97 [label="squared_error = 0.0\nsamples = 1\nvalue = -0.622"] ;
96 -> 97 ;
98 [label="squared_error = -0.0\nsamples = 1\nvalue = -0.508"] ;
96 -> 98 ;
99 [label="in_blast_zone <= 0.5\nsquared_error = 0.169\nsamples = 21\nvalue = -0.918"] ;
75 -> 99 ;
100 [label="move_bomb_allowed <= 0.5\nsquared_error = 0.005\nsamples = 15\nvalue = -0.681"] ;
99 -> 100 ;
101 [label="move_left_allowed <= 0.5\nsquared_error = 0.005\nsamples = 8\nvalue = -0.642"] ;
100 -> 101 ;
102 [label="move_up_allowed <= 0.5\nsquared_error = 0.005\nsamples = 4\nvalue = -0.607"] ;
101 -> 102 ;
103 [label="move_down_allowed <= 0.5\nsquared_error = 0.001\nsamples = 2\nvalue = -0.666"] ;
102 -> 103 ;
104 [label="squared_error = 0.0\nsamples = 1\nvalue = -0.638"] ;
103 -> 104 ;
105 [label="squared_error = -0.0\nsamples = 1\nvalue = -0.694"] ;
103 -> 105 ;
106 [label="move_down_allowed <= 0.5\nsquared_error = 0.002\nsamples = 2\nvalue = -0.547"] ;
102 -> 106 ;
107 [label="squared_error = 0.0\nsamples = 1\nvalue = -0.597"] ;
106 -> 107 ;
108 [label="squared_error = 0.0\nsamples = 1\nvalue = -0.498"] ;
106 -> 108 ;
109 [label="move_up_allowed <= 0.5\nsquared_error = 0.002\nsamples = 4\nvalue = -0.678"] ;
101 -> 109 ;
110 [label="move_down_allowed <= 0.5\nsquared_error = 0.001\nsamples = 2\nvalue = -0.658"] ;
109 -> 110 ;
111 [label="squared_error = 0.0\nsamples = 1\nvalue = -0.625"] ;
110 -> 111 ;
112 [label="squared_error = -0.0\nsamples = 1\nvalue = -0.692"] ;
110 -> 112 ;
113 [label="move_down_allowed <= 0.5\nsquared_error = 0.001\nsamples = 2\nvalue = -0.697"] ;
109 -> 113 ;
114 [label="squared_error = 0.0\nsamples = 1\nvalue = -0.733"] ;
113 -> 114 ;
115 [label="squared_error = 0.0\nsamples = 1\nvalue = -0.662"] ;
113 -> 115 ;
116 [label="move_down_allowed <= 0.5\nsquared_error = 0.002\nsamples = 7\nvalue = -0.725"] ;
100 -> 116 ;
117 [label="move_left_allowed <= 0.5\nsquared_error = 0.002\nsamples = 3\nvalue = -0.694"] ;
116 -> 117 ;
118 [label="squared_error = 0.0\nsamples = 1\nvalue = -0.651"] ;
117 -> 118 ;
119 [label="move_up_allowed <= 0.5\nsquared_error = 0.002\nsamples = 2\nvalue = -0.716"] ;
117 -> 119 ;
120 [label="squared_error = 0.0\nsamples = 1\nvalue = -0.677"] ;
119 -> 120 ;
121 [label="squared_error = 0.0\nsamples = 1\nvalue = -0.755"] ;
119 -> 121 ;
122 [label="move_left_allowed <= 0.5\nsquared_error = 0.001\nsamples = 4\nvalue = -0.748"] ;
116 -> 122 ;
123 [label="move_up_allowed <= 0.5\nsquared_error = 0.0\nsamples = 2\nvalue = -0.723"] ;
122 -> 123 ;
124 [label="squared_error = 0.0\nsamples = 1\nvalue = -0.737"] ;
123 -> 124 ;
125 [label="squared_error = 0.0\nsamples = 1\nvalue = -0.71"] ;
123 -> 125 ;
126 [label="move_up_allowed <= 0.5\nsquared_error = 0.0\nsamples = 2\nvalue = -0.772"] ;
122 -> 126 ;
127 [label="squared_error = 0.0\nsamples = 1\nvalue = -0.774"] ;
126 -> 127 ;
128 [label="squared_error = -0.0\nsamples = 1\nvalue = -0.771"] ;
126 -> 128 ;
129 [label="move_left_allowed <= 0.5\nsquared_error = 0.087\nsamples = 6\nvalue = -1.509"] ;
99 -> 129 ;
130 [label="move_up_allowed <= 0.5\nsquared_error = 0.057\nsamples = 3\nvalue = -1.274"] ;
129 -> 130 ;
131 [label="squared_error = 0.0\nsamples = 1\nvalue = -1.549"] ;
130 -> 131 ;
132 [label="move_down_allowed <= 0.5\nsquared_error = 0.029\nsamples = 2\nvalue = -1.136"] ;
130 -> 132 ;
133 [label="squared_error = 0.0\nsamples = 1\nvalue = -1.305"] ;
132 -> 133 ;
134 [label="squared_error = 0.0\nsamples = 1\nvalue = -0.967"] ;
132 -> 134 ;
135 [label="move_down_allowed <= 0.5\nsquared_error = 0.005\nsamples = 3\nvalue = -1.745"] ;
129 -> 135 ;
136 [label="move_up_allowed <= 0.5\nsquared_error = 0.001\nsamples = 2\nvalue = -1.697"] ;
135 -> 136 ;
137 [label="squared_error = 0.0\nsamples = 1\nvalue = -1.671"] ;
136 -> 137 ;
138 [label="squared_error = -0.0\nsamples = 1\nvalue = -1.722"] ;
136 -> 138 ;
139 [label="squared_error = 0.0\nsamples = 1\nvalue = -1.842"] ;
135 -> 139 ;
140 [label="in_blast_zone <= 0.5\nsquared_error = 0.154\nsamples = 101\nvalue = 0.171"] ;
0 -> 140 [labeldistance=2.5, labelangle=-45, headlabel="False"] ;
141 [label="move_down_allowed <= 0.5\nsquared_error = 0.047\nsamples = 52\nvalue = 0.319"] ;
140 -> 141 ;
142 [label="move_to_coin_left <= 0.5\nsquared_error = 0.058\nsamples = 24\nvalue = 0.428"] ;
141 -> 142 ;
143 [label="move_to_coin_wait <= 0.5\nsquared_error = 0.02\nsamples = 16\nvalue = 0.324"] ;
142 -> 143 ;
144 [label="move_bomb_allowed <= 0.5\nsquared_error = 0.014\nsamples = 8\nvalue = 0.248"] ;
143 -> 144 ;
145 [label="move_left_allowed <= 0.5\nsquared_error = 0.007\nsamples = 4\nvalue = 0.181"] ;
144 -> 145 ;
146 [label="squared_error = 0.0\nsamples = 1\nvalue = 0.05"] ;
145 -> 146 ;
147 [label="move_up_allowed <= 0.5\nsquared_error = 0.002\nsamples = 3\nvalue = 0.224"] ;
145 -> 147 ;
148 [label="squared_error = 0.0\nsamples = 1\nvalue = 0.284"] ;
147 -> 148 ;
149 [label="move_to_coin_down <= 0.5\nsquared_error = 0.001\nsamples = 2\nvalue = 0.194"] ;
147 -> 149 ;
150 [label="squared_error = 0.0\nsamples = 1\nvalue = 0.167"] ;
149 -> 150 ;
151 [label="squared_error = -0.0\nsamples = 1\nvalue = 0.221"] ;
149 -> 151 ;
152 [label="move_to_coin_right <= 0.5\nsquared_error = 0.012\nsamples = 4\nvalue = 0.315"] ;
144 -> 152 ;
153 [label="move_left_allowed <= 0.5\nsquared_error = 0.002\nsamples = 2\nvalue = 0.402"] ;
152 -> 153 ;
154 [label="squared_error = 0.0\nsamples = 1\nvalue = 0.447"] ;
153 -> 154 ;
155 [label="squared_error = -0.0\nsamples = 1\nvalue = 0.356"] ;
153 -> 155 ;
156 [label="move_up_allowed <= 0.5\nsquared_error = 0.007\nsamples = 2\nvalue = 0.229"] ;
152 -> 156 ;
157 [label="squared_error = 0.0\nsamples = 1\nvalue = 0.313"] ;
156 -> 157 ;
158 [label="squared_error = -0.0\nsamples = 1\nvalue = 0.144"] ;
156 -> 158 ;
159 [label="move_bomb_allowed <= 0.5\nsquared_error = 0.015\nsamples = 8\nvalue = 0.399"] ;
143 -> 159 ;
160 [label="move_up_allowed <= 0.5\nsquared_error = 0.014\nsamples = 4\nvalue = 0.485"] ;
159 -> 160 ;
161 [label="move_left_allowed <= 0.5\nsquared_error = 0.0\nsamples = 2\nvalue = 0.408"] ;
160 -> 161 ;
162 [label="squared_error = 0.0\nsamples = 1\nvalue = 0.395"] ;
161 -> 162 ;
163 [label="squared_error = 0.0\nsamples = 1\nvalue = 0.42"] ;
161 -> 163 ;
164 [label="move_left_allowed <= 0.5\nsquared_error = 0.015\nsamples = 2\nvalue = 0.562"] ;
160 -> 164 ;
165 [label="squared_error = 0.0\nsamples = 1\nvalue = 0.685"] ;
164 -> 165 ;
166 [label="squared_error = -0.0\nsamples = 1\nvalue = 0.439"] ;
164 -> 166 ;
167 [label="move_up_allowed <= 0.5\nsquared_error = 0.001\nsamples = 4\nvalue = 0.314"] ;
159 -> 167 ;
168 [label="move_left_allowed <= 0.5\nsquared_error = 0.001\nsamples = 2\nvalue = 0.292"] ;
167 -> 168 ;
169 [label="squared_error = 0.0\nsamples = 1\nvalue = 0.265"] ;
168 -> 169 ;
170 [label="squared_error = 0.0\nsamples = 1\nvalue = 0.318"] ;
168 -> 170 ;
171 [label="move_left_allowed <= 0.5\nsquared_error = 0.0\nsamples = 2\nvalue = 0.336"] ;
167 -> 171 ;
172 [label="squared_error = 0.0\nsamples = 1\nvalue = 0.339"] ;
171 -> 172 ;
173 [label="squared_error = -0.0\nsamples = 1\nvalue = 0.332"] ;
171 -> 173 ;
174 [label="move_left_allowed <= 0.5\nsquared_error = 0.067\nsamples = 8\nvalue = 0.636"] ;
142 -> 174 ;
175 [label="move_bomb_allowed <= 0.5\nsquared_error = 0.063\nsamples = 4\nvalue = 0.479"] ;
174 -> 175 ;
176 [label="move_up_allowed <= 0.5\nsquared_error = 0.0\nsamples = 2\nvalue = 0.643"] ;
175 -> 176 ;
177 [label="squared_error = 0.0\nsamples = 1\nvalue = 0.641"] ;
176 -> 177 ;
178 [label="squared_error = -0.0\nsamples = 1\nvalue = 0.645"] ;
176 -> 178 ;
179 [label="move_up_allowed <= 0.5\nsquared_error = 0.072\nsamples = 2\nvalue = 0.315"] ;
175 -> 179 ;
180 [label="squared_error = 0.0\nsamples = 1\nvalue = 0.047"] ;
179 -> 180 ;
181 [label="squared_error = 0.0\nsamples = 1\nvalue = 0.583"] ;
179 -> 181 ;
182 [label="move_bomb_allowed <= 0.5\nsquared_error = 0.023\nsamples = 4\nvalue = 0.793"] ;
174 -> 182 ;
183 [label="move_up_allowed <= 0.5\nsquared_error = 0.018\nsamples = 2\nvalue = 0.68"] ;
182 -> 183 ;
184 [label="squared_error = 0.0\nsamples = 1\nvalue = 0.814"] ;
183 -> 184 ;
185 [label="squared_error = -0.0\nsamples = 1\nvalue = 0.545"] ;
183 -> 185 ;
186 [label="move_up_allowed <= 0.5\nsquared_error = 0.001\nsamples = 2\nvalue = 0.907"] ;
182 -> 186 ;
187 [label="squared_error = 0.0\nsamples = 1\nvalue = 0.942"] ;
186 -> 187 ;
188 [label="squared_error = 0.0\nsamples = 1\nvalue = 0.873"] ;
186 -> 188 ;
189 [label="move_bomb_allowed <= 0.5\nsquared_error = 0.02\nsamples = 28\nvalue = 0.225"] ;
141 -> 189 ;
190 [label="move_to_coin_up <= 0.5\nsquared_error = 0.023\nsamples = 13\nvalue = 0.277"] ;
189 -> 190 ;
191 [label="move_left_allowed <= 0.5\nsquared_error = 0.019\nsamples = 11\nvalue = 0.313"] ;
190 -> 191 ;
192 [label="move_up_allowed <= 0.5\nsquared_error = 0.014\nsamples = 5\nvalue = 0.404"] ;
191 -> 192 ;
193 [label="move_to_coin_wait <= 0.5\nsquared_error = 0.004\nsamples = 2\nvalue = 0.516"] ;
192 -> 193 ;
194 [label="squared_error = 0.0\nsamples = 1\nvalue = 0.579"] ;
193 -> 194 ;
195 [label="squared_error = -0.0\nsamples = 1\nvalue = 0.454"] ;
193 -> 195 ;
196 [label="move_to_coin_wait <= 0.5\nsquared_error = 0.006\nsamples = 3\nvalue = 0.329"] ;
192 -> 196 ;
197 [label="move_to_coin_down <= 0.5\nsquared_error = 0.0\nsamples = 2\nvalue = 0.385"] ;
196 -> 197 ;
198 [label="squared_error = 0.0\nsamples = 1\nvalue = 0.383"] ;
197 -> 198 ;
199 [label="squared_error = -0.0\nsamples = 1\nvalue = 0.387"] ;
197 -> 199 ;
200 [label="squared_error = 0.0\nsamples = 1\nvalue = 0.217"] ;
196 -> 200 ;
201 [label="move_up_allowed <= 0.5\nsquared_error = 0.011\nsamples = 6\nvalue = 0.237"] ;
191 -> 201 ;
202 [label="move_to_coin_right <= 0.5\nsquared_error = 0.008\nsamples = 3\nvalue = 0.313"] ;
201 -> 202 ;
203 [label="move_to_coin_wait <= 0.5\nsquared_error = 0.0\nsamples = 2\nvalue = 0.25"] ;
202 -> 203 ;
204 [label="squared_error = 0.0\nsamples = 1\nvalue = 0.244"] ;
203 -> 204 ;
205 [label="squared_error = 0.0\nsamples = 1\nvalue = 0.256"] ;
203 -> 205 ;
206 [label="squared_error = -0.0\nsamples = 1\nvalue = 0.439"] ;
202 -> 206 ;
207 [label="move_to_coin_down <= 0.5\nsquared_error = 0.003\nsamples = 3\nvalue = 0.162"] ;
201 -> 207 ;
208 [label="move_to_coin_wait <= 0.5\nsquared_error = 0.001\nsamples = 2\nvalue = 0.129"] ;
207 -> 208 ;
209 [label="squared_error = 0.0\nsamples = 1\nvalue = 0.16"] ;
208 -> 209 ;
210 [label="squared_error = -0.0\nsamples = 1\nvalue = 0.099"] ;
208 -> 210 ;
211 [label="squared_error = 0.0\nsamples = 1\nvalue = 0.226"] ;
207 -> 211 ;
212 [label="move_up_allowed <= 0.5\nsquared_error = 0.0\nsamples = 2\nvalue = 0.082"] ;
190 -> 212 ;
213 [label="squared_error = 0.0\nsamples = 1\nvalue = 0.101"] ;
212 -> 213 ;
214 [label="squared_error = 0.0\nsamples = 1\nvalue = 0.062"] ;
212 -> 214 ;
215 [label="move_to_coin_down <= 0.5\nsquared_error = 0.012\nsamples = 15\nvalue = 0.18"] ;
189 -> 215 ;
216 [label="move_to_coin_wait <= 0.5\nsquared_error = 0.012\nsamples = 13\nvalue = 0.196"] ;
215 -> 216 ;
217 [label="move_up_allowed <= 0.5\nsquared_error = 0.009\nsamples = 9\nvalue = 0.221"] ;
216 -> 217 ;
218 [label="move_to_coin_right <= 0.5\nsquared_error = 0.01\nsamples = 5\nvalue = 0.176"] ;
217 -> 218 ;
219 [label="move_to_coin_up <= 0.5\nsquared_error = 0.006\nsamples = 4\nvalue = 0.138"] ;
218 -> 219 ;
220 [label="move_left_allowed <= 0.5\nsquared_error = 0.004\nsamples = 2\nvalue = 0.119"] ;
219 -> 220 ;
221 [label="squared_error = 0.0\nsamples = 1\nvalue = 0.059"] ;
220 -> 221 ;
222 [label="squared_error = 0.0\nsamples = 1\nvalue = 0.178"] ;
220 -> 222 ;
223 [label="move_left_allowed <= 0.5\nsquared_error = 0.007\nsamples = 2\nvalue = 0.158"] ;
219 -> 223 ;
224 [label="squared_error = 0.0\nsamples = 1\nvalue = 0.24"] ;
223 -> 224 ;
225 [label="squared_error = 0.0\nsamples = 1\nvalue = 0.075"] ;
223 -> 225 ;
226 [label="squared_error = 0.0\nsamples = 1\nvalue = 0.329"] ;
218 -> 226 ;
227 [label="move_to_coin_left <= 0.5\nsquared_error = 0.002\nsamples = 4\nvalue = 0.277"] ;
217 -> 227 ;
228 [label="move_left_allowed <= 0.5\nsquared_error = 0.0\nsamples = 2\nvalue = 0.242"] ;
227 -> 228 ;
229 [label="squared_error = 0.0\nsamples = 1\nvalue = 0.257"] ;
228 -> 229 ;
230 [label="squared_error = 0.0\nsamples = 1\nvalue = 0.228"] ;
228 -> 230 ;
231 [label="move_left_allowed <= 0.5\nsquared_error = 0.001\nsamples = 2\nvalue = 0.312"] ;
227 -> 231 ;
232 [label="squared_error = 0.0\nsamples = 1\nvalue = 0.288"] ;
231 -> 232 ;
233 [label="squared_error = -0.0\nsamples = 1\nvalue = 0.337"] ;
231 -> 233 ;
234 [label="move_left_allowed <= 0.5\nsquared_error = 0.014\nsamples = 4\nvalue = 0.14"] ;
216 -> 234 ;
235 [label="move_up_allowed <= 0.5\nsquared_error = 0.011\nsamples = 2\nvalue = 0.228"] ;
234 -> 235 ;
236 [label="squared_error = 0.0\nsamples = 1\nvalue = 0.335"] ;
235 -> 236 ;
237 [label="squared_error = -0.0\nsamples = 1\nvalue = 0.121"] ;
235 -> 237 ;
238 [label="move_up_allowed <= 0.5\nsquared_error = 0.001\nsamples = 2\nvalue = 0.052"] ;
234 -> 238 ;
239 [label="squared_error = 0.0\nsamples = 1\nvalue = 0.078"] ;
238 -> 239 ;
240 [label="squared_error = -0.0\nsamples = 1\nvalue = 0.026"] ;
238 -> 240 ;
241 [label="move_left_allowed <= 0.5\nsquared_error = 0.003\nsamples = 2\nvalue = 0.074"] ;
215 -> 241 ;
242 [label="squared_error = 0.0\nsamples = 1\nvalue = 0.019"] ;
241 -> 242 ;
243 [label="squared_error = 0.0\nsamples = 1\nvalue = 0.129"] ;
241 -> 243 ;
244 [label="move_to_safety_left <= 0.5\nsquared_error = 0.219\nsamples = 49\nvalue = 0.014"] ;
140 -> 244 ;
245 [label="move_left_allowed <= 0.5\nsquared_error = 0.142\nsamples = 25\nvalue = -0.323"] ;
244 -> 245 ;
246 [label="move_to_safety_wait <= 0.5\nsquared_error = 0.125\nsamples = 10\nvalue = -0.641"] ;
245 -> 246 ;
247 [label="move_down_allowed <= 0.5\nsquared_error = 0.007\nsamples = 7\nvalue = -0.432"] ;
246 -> 247 ;
248 [label="move_to_coin_wait <= 0.5\nsquared_error = 0.0\nsamples = 2\nvalue = -0.525"] ;
247 -> 248 ;
249 [label="squared_error = 0.0\nsamples = 1\nvalue = -0.516"] ;
248 -> 249 ;
250 [label="squared_error = -0.0\nsamples = 1\nvalue = -0.534"] ;
248 -> 250 ;
251 [label="move_to_coin_left <= 0.5\nsquared_error = 0.005\nsamples = 5\nvalue = -0.395"] ;
247 -> 251 ;
252 [label="move_to_safety_up <= 0.5\nsquared_error = 0.004\nsamples = 4\nvalue = -0.415"] ;
251 -> 252 ;
253 [label="move_to_coin_wait <= 0.5\nsquared_error = 0.003\nsamples = 2\nvalue = -0.376"] ;
252 -> 253 ;
254 [label="squared_error = 0.0\nsamples = 1\nvalue = -0.429"] ;
253 -> 254 ;
255 [label="squared_error = -0.0\nsamples = 1\nvalue = -0.323"] ;
253 -> 255 ;
256 [label="move_to_coin_wait <= 0.5\nsquared_error = 0.003\nsamples = 2\nvalue = -0.454"] ;
252 -> 256 ;
257 [label="squared_error = 0.0\nsamples = 1\nvalue = -0.401"] ;
256 -> 257 ;
258 [label="squared_error = -0.0\nsamples = 1\nvalue = -0.507"] ;
256 -> 258 ;
259 [label="squared_error = 0.0\nsamples = 1\nvalue = -0.313"] ;
251 -> 259 ;
260 [label="move_up_allowed <= 0.5\nsquared_error = 0.058\nsamples = 3\nvalue = -1.13"] ;
246 -> 260 ;
261 [label="move_down_allowed <= 0.5\nsquared_error = 0.057\nsamples = 2\nvalue = -1.23"] ;
260 -> 261 ;
262 [label="squared_error = 0.0\nsamples = 1\nvalue = -1.469"] ;
261 -> 262 ;
263 [label="squared_error = 0.0\nsamples = 1\nvalue = -0.991"] ;
261 -> 263 ;
264 [label="squared_error = -0.0\nsamples = 1\nvalue = -0.931"] ;
260 -> 264 ;
265 [label="move_to_safety_down <= 0.5\nsquared_error = 0.04\nsamples = 15\nvalue = -0.11"] ;
245 -> 265 ;
266 [label="move_to_coin_wait <= 0.5\nsquared_error = 0.034\nsamples = 13\nvalue = -0.069"] ;
265 -> 266 ;
267 [label="move_up_allowed <= 0.5\nsquared_error = 0.027\nsamples = 7\nvalue = -0.112"] ;
266 -> 267 ;
268 [label="move_to_safety_up <= 0.5\nsquared_error = 0.001\nsamples = 4\nvalue = -0.23"] ;
267 -> 268 ;
269 [label="move_to_coin_left <= 0.5\nsquared_error = 0.001\nsamples = 3\nvalue = -0.219"] ;
268 -> 269 ;
270 [label="move_down_allowed <= 0.5\nsquared_error = 0.0\nsamples = 2\nvalue = -0.236"] ;
269 -> 270 ;
271 [label="squared_error = 0.0\nsamples = 1\nvalue = -0.24"] ;
270 -> 271 ;
272 [label="squared_error = 0.0\nsamples = 1\nvalue = -0.231"] ;
270 -> 272 ;
273 [label="squared_error = 0.0\nsamples = 1\nvalue = -0.184"] ;
269 -> 273 ;
274 [label="squared_error = -0.0\nsamples = 1\nvalue = -0.266"] ;
268 -> 274 ;
275 [label="move_to_safety_up <= 0.5\nsquared_error = 0.019\nsamples = 3\nvalue = 0.045"] ;
267 -> 275 ;
276 [label="move_to_coin_down <= 0.5\nsquared_error = 0.003\nsamples = 2\nvalue = -0.045"] ;
275 -> 276 ;
277 [label="squared_error = 0.0\nsamples = 1\nvalue = 0.013"] ;
276 -> 277 ;
278 [label="squared_error = 0.0\nsamples = 1\nvalue = -0.104"] ;
276 -> 278 ;
279 [label="squared_error = -0.0\nsamples = 1\nvalue = 0.226"] ;
275 -> 279 ;
280 [label="move_up_allowed <= 0.5\nsquared_error = 0.037\nsamples = 6\nvalue = -0.019"] ;
266 -> 280 ;
281 [label="move_to_safety_wait <= 0.5\nsquared_error = 0.041\nsamples = 4\nvalue = 0.049"] ;
280 -> 281 ;
282 [label="move_down_allowed <= 0.5\nsquared_error = 0.024\nsamples = 3\nvalue = 0.137"] ;
281 -> 282 ;
283 [label="squared_error = 0.0\nsamples = 1\nvalue = 0.336"] ;
282 -> 283 ;
284 [label="move_to_safety_right <= 0.5\nsquared_error = 0.006\nsamples = 2\nvalue = 0.038"] ;
282 -> 284 ;
285 [label="squared_error = 0.0\nsamples = 1\nvalue = 0.115"] ;
284 -> 285 ;
286 [label="squared_error = 0.0\nsamples = 1\nvalue = -0.039"] ;
284 -> 286 ;
287 [label="squared_error = 0.0\nsamples = 1\nvalue = -0.217"] ;
281 -> 287 ;
288 [label="move_to_safety_right <= 0.5\nsquared_error = 0.0\nsamples = 2\nvalue = -0.155"] ;
280 -> 288 ;
289 [label="squared_error = 0.0\nsamples = 1\nvalue = -0.165"] ;
288 -> 289 ;
290 [label="squared_error = 0.0\nsamples = 1\nvalue = -0.146"] ;
288 -> 290 ;
291 [label="move_down_allowed <= 0.5\nsquared_error = 0.004\nsamples = 2\nvalue = -0.373"] ;
265 -> 291 ;
292 [label="squared_error = 0.0\nsamples = 1\nvalue = -0.433"] ;
291 -> 292 ;
293 [label="squared_error = -0.0\nsamples = 1\nvalue = -0.313"] ;
291 -> 293 ;
294 [label="move_to_coin_wait <= 0.5\nsquared_error = 0.058\nsamples = 24\nvalue = 0.365"] ;
244 -> 294 ;
295 [label="move_to_coin_left <= 0.5\nsquared_error = 0.017\nsamples = 16\nvalue = 0.238"] ;
294 -> 295 ;
296 [label="move_up_allowed <= 0.5\nsquared_error = 0.002\nsamples = 10\nvalue = 0.146"] ;
295 -> 296 ;
297 [label="move_to_coin_up <= 0.5\nsquared_error = 0.004\nsamples = 4\nvalue = 0.178"] ;
296 -> 297 ;
298 [label="move_down_allowed <= 0.5\nsquared_error = 0.0\nsamples = 2\nvalue = 0.237"] ;
297 -> 298 ;
299 [label="squared_error = 0.0\nsamples = 1\nvalue = 0.252"] ;
298 -> 299 ;
300 [label="squared_error = -0.0\nsamples = 1\nvalue = 0.222"] ;
298 -> 300 ;
301 [label="move_left_allowed <= 0.5\nsquared_error = 0.0\nsamples = 2\nvalue = 0.12"] ;
297 -> 301 ;
302 [label="squared_error = 0.0\nsamples = 1\nvalue = 0.124"] ;
301 -> 302 ;
303 [label="squared_error = -0.0\nsamples = 1\nvalue = 0.116"] ;
301 -> 303 ;
304 [label="move_to_coin_down <= 0.5\nsquared_error = 0.001\nsamples = 6\nvalue = 0.125"] ;
296 -> 304 ;
305 [label="move_left_allowed <= 0.5\nsquared_error = 0.0\nsamples = 3\nvalue = 0.101"] ;
304 -> 305 ;
306 [label="squared_error = 0.0\nsamples = 1\nvalue = 0.091"] ;
305 -> 306 ;
307 [label="move_down_allowed <= 0.5\nsquared_error = 0.0\nsamples = 2\nvalue = 0.106"] ;
305 -> 307 ;
308 [label="squared_error = 0.0\nsamples = 1\nvalue = 0.102"] ;
307 -> 308 ;
309 [label="squared_error = 0.0\nsamples = 1\nvalue = 0.111"] ;
307 -> 309 ;
310 [label="move_left_allowed <= 0.5\nsquared_error = 0.0\nsamples = 3\nvalue = 0.149"] ;
304 -> 310 ;
311 [label="move_down_allowed <= 0.5\nsquared_error = 0.0\nsamples = 2\nvalue = 0.144"] ;
310 -> 311 ;
312 [label="squared_error = 0.0\nsamples = 1\nvalue = 0.133"] ;
311 -> 312 ;
313 [label="squared_error = 0.0\nsamples = 1\nvalue = 0.156"] ;
311 -> 313 ;
314 [label="squared_error = 0.0\nsamples = 1\nvalue = 0.159"] ;
310 -> 314 ;
315 [label="move_left_allowed <= 0.5\nsquared_error = 0.005\nsamples = 6\nvalue = 0.39"] ;
295 -> 315 ;
316 [label="move_up_allowed <= 0.5\nsquared_error = 0.0\nsamples = 3\nvalue = 0.328"] ;
315 -> 316 ;
317 [label="move_down_allowed <= 0.5\nsquared_error = 0.0\nsamples = 2\nvalue = 0.317"] ;
316 -> 317 ;
318 [label="squared_error = 0.0\nsamples = 1\nvalue = 0.305"] ;
317 -> 318 ;
319 [label="squared_error = -0.0\nsamples = 1\nvalue = 0.329"] ;
317 -> 319 ;
320 [label="squared_error = -0.0\nsamples = 1\nvalue = 0.349"] ;
316 -> 320 ;
321 [label="move_down_allowed <= 0.5\nsquared_error = 0.002\nsamples = 3\nvalue = 0.453"] ;
315 -> 321 ;
322 [label="move_up_allowed <= 0.5\nsquared_error = 0.0\nsamples = 2\nvalue = 0.419"] ;
321 -> 322 ;
323 [label="squared_error = 0.0\nsamples = 1\nvalue = 0.43"] ;
322 -> 323 ;
324 [label="squared_error = 0.0\nsamples = 1\nvalue = 0.408"] ;
322 -> 324 ;
325 [label="squared_error = 0.0\nsamples = 1\nvalue = 0.52"] ;
321 -> 325 ;
326 [label="move_left_allowed <= 0.5\nsquared_error = 0.041\nsamples = 8\nvalue = 0.619"] ;
294 -> 326 ;
327 [label="move_down_allowed <= 0.5\nsquared_error = 0.042\nsamples = 4\nvalue = 0.692"] ;
326 -> 327 ;
328 [label="move_up_allowed <= 0.5\nsquared_error = 0.031\nsamples = 2\nvalue = 0.629"] ;
327 -> 328 ;
329 [label="squared_error = 0.0\nsamples = 1\nvalue = 0.453"] ;
328 -> 329 ;
330 [label="squared_error = -0.0\nsamples = 1\nvalue = 0.806"] ;
328 -> 330 ;
331 [label="move_up_allowed <= 0.5\nsquared_error = 0.046\nsamples = 2\nvalue = 0.754"] ;
327 -> 331 ;
332 [label="squared_error = 0.0\nsamples = 1\nvalue = 0.968"] ;
331 -> 332 ;
333 [label="squared_error = -0.0\nsamples = 1\nvalue = 0.54"] ;
331 -> 333 ;
334 [label="move_down_allowed <= 0.5\nsquared_error = 0.029\nsamples = 4\nvalue = 0.546"] ;
326 -> 334 ;
335 [label="move_up_allowed <= 0.5\nsquared_error = 0.032\nsamples = 2\nvalue = 0.615"] ;
334 -> 335 ;
336 [label="squared_error = 0.0\nsamples = 1\nvalue = 0.436"] ;
335 -> 336 ;
337 [label="squared_error = 0.0\nsamples = 1\nvalue = 0.794"] ;
335 -> 337 ;
338 [label="move_up_allowed <= 0.5\nsquared_error = 0.017\nsamples = 2\nvalue = 0.477"] ;
334 -> 338 ;
339 [label="squared_error = 0.0\nsamples = 1\nvalue = 0.608"] ;
338 -> 339 ;
340 [label="squared_error = 0.0\nsamples = 1\nvalue = 0.346"] ;
338 -> 340 ;
}