digraph Tree {
node [shape=box, fontname="helvetica"] ;
edge [fontname="helvetica"] ;
0 [label="move_left_possible <= 0.5\nsquared_error = 0.032\nsamples = 119\nvalue = -0.142"] ;
1 [label="move_bomb_to_death <= 0.5\nsquared_error = 0.008\nsamples = 58\nvalue = -0.295"] ;
0 -> 1 [labeldistance=2.5, labelangle=45, headlabel="True"] ;
2 [label="boxes_in_range <= 1.5\nsquared_error = 0.003\nsamples = 23\nvalue = -0.218"] ;
1 -> 2 ;
3 [label="squared_error = 0.0\nsamples = 1\nvalue = -0.1"] ;
2 -> 3 ;
4 [label="squared_error = 0.003\nsamples = 22\nvalue = -0.224"] ;
2 -> 4 ;
5 [label="move_to_safety_down <= 0.5\nsquared_error = 0.005\nsamples = 35\nvalue = -0.345"] ;
1 -> 5 ;
6 [label="squared_error = 0.003\nsamples = 30\nvalue = -0.361"] ;
5 -> 6 ;
7 [label="squared_error = 0.008\nsamples = 5\nvalue = -0.254"] ;
5 -> 7 ;
8 [label="move_left_to_death <= 0.5\nsquared_error = 0.011\nsamples = 61\nvalue = 0.003"] ;
0 -> 8 [labeldistance=2.5, labelangle=-45, headlabel="False"] ;
9 [label="move_down_to_death <= 0.5\nsquared_error = 0.004\nsamples = 35\nvalue = 0.066"] ;
8 -> 9 ;
10 [label="squared_error = 0.0\nsamples = 25\nvalue = 0.033"] ;
9 -> 10 ;
11 [label="squared_error = 0.002\nsamples = 10\nvalue = 0.149"] ;
9 -> 11 ;
12 [label="move_down_to_death <= 0.5\nsquared_error = 0.008\nsamples = 26\nvalue = -0.082"] ;
8 -> 12 ;
13 [label="squared_error = 0.004\nsamples = 13\nvalue = -0.16"] ;
12 -> 13 ;
14 [label="squared_error = 0.0\nsamples = 13\nvalue = -0.004"] ;
12 -> 14 ;
}