digraph Tree {
node [shape=box, fontname="helvetica"] ;
edge [fontname="helvetica"] ;
0 [label="move_right_possible <= 0.5\nsquared_error = 0.035\nsamples = 129\nvalue = -0.109"] ;
1 [label="move_left_possible <= 0.5\nsquared_error = 0.005\nsamples = 57\nvalue = -0.294"] ;
0 -> 1 [labeldistance=2.5, labelangle=45, headlabel="True"] ;
2 [label="boxes_in_range <= 1.5\nsquared_error = 0.004\nsamples = 32\nvalue = -0.332"] ;
1 -> 2 ;
3 [label="squared_error = 0.003\nsamples = 9\nvalue = -0.263"] ;
2 -> 3 ;
4 [label="squared_error = 0.001\nsamples = 23\nvalue = -0.36"] ;
2 -> 4 ;
5 [label="boxes_in_range <= 2.5\nsquared_error = 0.003\nsamples = 25\nvalue = -0.244"] ;
1 -> 5 ;
6 [label="squared_error = 0.006\nsamples = 7\nvalue = -0.207"] ;
5 -> 6 ;
7 [label="squared_error = 0.002\nsamples = 18\nvalue = -0.259"] ;
5 -> 7 ;
8 [label="move_right_to_death <= 0.5\nsquared_error = 0.01\nsamples = 72\nvalue = 0.037"] ;
0 -> 8 [labeldistance=2.5, labelangle=-45, headlabel="False"] ;
9 [label="move_up_to_death <= 0.5\nsquared_error = 0.009\nsamples = 37\nvalue = 0.098"] ;
8 -> 9 ;
10 [label="squared_error = 0.002\nsamples = 32\nvalue = 0.071"] ;
9 -> 10 ;
11 [label="squared_error = 0.018\nsamples = 5\nvalue = 0.271"] ;
9 -> 11 ;
12 [label="move_down_to_death <= 0.5\nsquared_error = 0.003\nsamples = 35\nvalue = -0.028"] ;
8 -> 12 ;
13 [label="squared_error = 0.003\nsamples = 12\nvalue = -0.083"] ;
12 -> 13 ;
14 [label="squared_error = 0.0\nsamples = 23\nvalue = 0.001"] ;
12 -> 14 ;
}