digraph Tree {
node [shape=box, fontname="helvetica"] ;
edge [fontname="helvetica"] ;
0 [label="move_to_coin_distance <= 1.5\nsquared_error = 0.013\nsamples = 23\nvalue = 0.046"] ;
1 [label="move_right_to_coin <= 0.5\nsquared_error = 0.041\nsamples = 4\nvalue = 0.207"] ;
0 -> 1 [labeldistance=2.5, labelangle=45, headlabel="True"] ;
2 [label="move_left_to_coin <= 0.5\nsquared_error = 0.001\nsamples = 3\nvalue = 0.091"] ;
1 -> 2 ;
3 [label="squared_error = 0.0\nsamples = 2\nvalue = 0.116"] ;
2 -> 3 ;
4 [label="squared_error = 0.0\nsamples = 1\nvalue = 0.041"] ;
2 -> 4 ;
5 [label="squared_error = 0.0\nsamples = 1\nvalue = 0.555"] ;
1 -> 5 ;
6 [label="move_to_coin_distance <= 2.5\nsquared_error = 0.001\nsamples = 19\nvalue = 0.012"] ;
0 -> 6 [labeldistance=2.5, labelangle=-45, headlabel="False"] ;
7 [label="move_right_to_coin <= 0.5\nsquared_error = 0.002\nsamples = 4\nvalue = 0.047"] ;
6 -> 7 ;
8 [label="squared_error = 0.0\nsamples = 3\nvalue = 0.023"] ;
7 -> 8 ;
9 [label="squared_error = -0.0\nsamples = 1\nvalue = 0.116"] ;
7 -> 9 ;
10 [label="move_to_coin_distance <= 3.5\nsquared_error = 0.0\nsamples = 15\nvalue = 0.002"] ;
6 -> 10 ;
11 [label="squared_error = 0.0\nsamples = 4\nvalue = 0.007"] ;
10 -> 11 ;
12 [label="squared_error = 0.0\nsamples = 11\nvalue = 0.0"] ;
10 -> 12 ;
}