digraph Tree {
node [shape=box, fontname="helvetica"] ;
edge [fontname="helvetica"] ;
0 [label="move_to_coin_up <= 0.5\nsquared_error = 0.005\nsamples = 19\nvalue = 0.04"] ;
1 [label="move_to_safety_up <= 0.5\nsquared_error = 0.0\nsamples = 15\nvalue = 0.01"] ;
0 -> 1 [labeldistance=2.5, labelangle=45, headlabel="True"] ;
2 [label="move_to_safety_down <= 0.5\nsquared_error = 0.0\nsamples = 12\nvalue = 0.008"] ;
1 -> 2 ;
3 [label="move_to_safety_right <= 0.5\nsquared_error = 0.0\nsamples = 9\nvalue = 0.009"] ;
2 -> 3 ;
4 [label="move_to_coin_right <= 0.5\nsquared_error = 0.0\nsamples = 6\nvalue = 0.009"] ;
3 -> 4 ;
5 [label="move_to_safety_wait <= 0.5\nsquared_error = 0.0\nsamples = 4\nvalue = 0.012"] ;
4 -> 5 ;
6 [label="move_to_coin_left <= 0.5\nsquared_error = 0.0\nsamples = 2\nvalue = 0.014"] ;
5 -> 6 ;
7 [label="squared_error = 0.0\nsamples = 1\nvalue = 0.01"] ;
6 -> 7 ;
8 [label="squared_error = -0.0\nsamples = 1\nvalue = 0.019"] ;
6 -> 8 ;
9 [label="squared_error = 0.0\nsamples = 2\nvalue = 0.01"] ;
5 -> 9 ;
10 [label="move_to_safety_left <= 0.5\nsquared_error = 0.0\nsamples = 2\nvalue = 0.005"] ;
4 -> 10 ;
11 [label="squared_error = 0.0\nsamples = 1\nvalue = 0.01"] ;
10 -> 11 ;
12 [label="squared_error = 0.0\nsamples = 1\nvalue = 0.0"] ;
10 -> 12 ;
13 [label="move_to_coin_left <= 0.5\nsquared_error = 0.0\nsamples = 3\nvalue = 0.009"] ;
3 -> 13 ;
14 [label="move_to_coin_down <= 0.5\nsquared_error = 0.0\nsamples = 2\nvalue = 0.013"] ;
13 -> 14 ;
15 [label="squared_error = 0.0\nsamples = 1\nvalue = 0.017"] ;
14 -> 15 ;
16 [label="squared_error = 0.0\nsamples = 1\nvalue = 0.01"] ;
14 -> 16 ;
17 [label="squared_error = 0.0\nsamples = 1\nvalue = 0.0"] ;
13 -> 17 ;
18 [label="move_to_coin_left <= 0.5\nsquared_error = 0.0\nsamples = 3\nvalue = 0.006"] ;
2 -> 18 ;
19 [label="move_to_coin_right <= 0.5\nsquared_error = 0.0\nsamples = 2\nvalue = 0.009"] ;
18 -> 19 ;
20 [label="squared_error = 0.0\nsamples = 1\nvalue = 0.01"] ;
19 -> 20 ;
21 [label="squared_error = -0.0\nsamples = 1\nvalue = 0.009"] ;
19 -> 21 ;
22 [label="squared_error = 0.0\nsamples = 1\nvalue = 0.0"] ;
18 -> 22 ;
23 [label="move_to_coin_right <= 0.5\nsquared_error = 0.0\nsamples = 3\nvalue = 0.018"] ;
1 -> 23 ;
24 [label="move_to_coin_down <= 0.5\nsquared_error = 0.0\nsamples = 2\nvalue = 0.013"] ;
23 -> 24 ;
25 [label="squared_error = 0.0\nsamples = 1\nvalue = 0.017"] ;
24 -> 25 ;
26 [label="squared_error = 0.0\nsamples = 1\nvalue = 0.01"] ;
24 -> 26 ;
27 [label="squared_error = -0.0\nsamples = 1\nvalue = 0.028"] ;
23 -> 27 ;
28 [label="move_to_safety_up <= 0.5\nsquared_error = 0.007\nsamples = 4\nvalue = 0.151"] ;
0 -> 28 [labeldistance=2.5, labelangle=-45, headlabel="False"] ;
29 [label="move_to_safety_down <= 0.5\nsquared_error = 0.0\nsamples = 3\nvalue = 0.102"] ;
28 -> 29 ;
30 [label="move_to_safety_left <= 0.5\nsquared_error = 0.0\nsamples = 2\nvalue = 0.095"] ;
29 -> 30 ;
31 [label="squared_error = 0.0\nsamples = 1\nvalue = 0.09"] ;
30 -> 31 ;
32 [label="squared_error = -0.0\nsamples = 1\nvalue = 0.1"] ;
30 -> 32 ;
33 [label="squared_error = -0.0\nsamples = 1\nvalue = 0.117"] ;
29 -> 33 ;
34 [label="squared_error = 0.0\nsamples = 1\nvalue = 0.299"] ;
28 -> 34 ;
}