digraph Tree {
node [shape=box, fontname="helvetica"] ;
edge [fontname="helvetica"] ;
0 [label="move_to_coin_distance <= 1.5\nsquared_error = 0.012\nsamples = 25\nvalue = 0.047"] ;
1 [label="move_up_to_coin <= 0.5\nsquared_error = 0.038\nsamples = 4\nvalue = 0.21"] ;
0 -> 1 [labeldistance=2.5, labelangle=45, headlabel="True"] ;
2 [label="move_left_to_coin <= 0.5\nsquared_error = 0.0\nsamples = 3\nvalue = 0.097"] ;
1 -> 2 ;
3 [label="squared_error = 0.0\nsamples = 2\nvalue = 0.107"] ;
2 -> 3 ;
4 [label="squared_error = -0.0\nsamples = 1\nvalue = 0.078"] ;
2 -> 4 ;
5 [label="squared_error = 0.0\nsamples = 1\nvalue = 0.546"] ;
1 -> 5 ;
6 [label="move_to_coin_distance <= 2.5\nsquared_error = 0.001\nsamples = 21\nvalue = 0.016"] ;
0 -> 6 [labeldistance=2.5, labelangle=-45, headlabel="False"] ;
7 [label="move_up_to_coin <= 0.5\nsquared_error = 0.002\nsamples = 4\nvalue = 0.076"] ;
6 -> 7 ;
8 [label="squared_error = 0.0\nsamples = 3\nvalue = 0.051"] ;
7 -> 8 ;
9 [label="squared_error = -0.0\nsamples = 1\nvalue = 0.153"] ;
7 -> 9 ;
10 [label="move_up_to_coin <= 0.5\nsquared_error = 0.0\nsamples = 17\nvalue = 0.002"] ;
6 -> 10 ;
11 [label="squared_error = 0.0\nsamples = 13\nvalue = 0.001"] ;
10 -> 11 ;
12 [label="squared_error = 0.0\nsamples = 4\nvalue = 0.007"] ;
10 -> 12 ;
}