digraph Tree {
node [shape=box, fontname="helvetica"] ;
edge [fontname="helvetica"] ;
0 [label="move_down_allowed <= 0.5\nsquared_error = 0.33\nsamples = 175\nvalue = -0.185"] ;
1 [label="move_to_safety_wait <= 0.5\nsquared_error = 0.077\nsamples = 73\nvalue = -0.709"] ;
0 -> 1 [labeldistance=2.5, labelangle=45, headlabel="True"] ;
2 [label="move_to_safety_down <= 0.5\nsquared_error = 0.008\nsamples = 29\nvalue = -0.57"] ;
1 -> 2 ;
3 [label="move_up_allowed <= 0.5\nsquared_error = 0.003\nsamples = 20\nvalue = -0.6"] ;
2 -> 3 ;
4 [label="move_to_safety_right <= 0.5\nsquared_error = 0.002\nsamples = 10\nvalue = -0.627"] ;
3 -> 4 ;
5 [label="move_left_allowed <= 0.5\nsquared_error = 0.001\nsamples = 5\nvalue = -0.601"] ;
4 -> 5 ;
6 [label="move_to_coin_left <= 0.5\nsquared_error = 0.0\nsamples = 2\nvalue = -0.631"] ;
5 -> 6 ;
7 [label="squared_error = 0.0\nsamples = 1\nvalue = -0.627"] ;
6 -> 7 ;
8 [label="squared_error = -0.0\nsamples = 1\nvalue = -0.635"] ;
6 -> 8 ;
9 [label="move_to_coin_left <= 0.5\nsquared_error = 0.001\nsamples = 3\nvalue = -0.581"] ;
5 -> 9 ;
10 [label="move_to_coin_wait <= 0.5\nsquared_error = 0.0\nsamples = 2\nvalue = -0.607"] ;
9 -> 10 ;
11 [label="squared_error = 0.0\nsamples = 1\nvalue = -0.608"] ;
10 -> 11 ;
12 [label="squared_error = -0.0\nsamples = 1\nvalue = -0.605"] ;
10 -> 12 ;
13 [label="squared_error = -0.0\nsamples = 1\nvalue = -0.529"] ;
9 -> 13 ;
14 [label="move_right_allowed <= 0.5\nsquared_error = 0.0\nsamples = 5\nvalue = -0.654"] ;
4 -> 14 ;
15 [label="move_to_coin_wait <= 0.5\nsquared_error = 0.001\nsamples = 2\nvalue = -0.647"] ;
14 -> 15 ;
16 [label="squared_error = 0.0\nsamples = 1\nvalue = -0.624"] ;
15 -> 16 ;
17 [label="squared_error = -0.0\nsamples = 1\nvalue = -0.671"] ;
15 -> 17 ;
18 [label="move_to_coin_right <= 0.5\nsquared_error = 0.0\nsamples = 3\nvalue = -0.658"] ;
14 -> 18 ;
19 [label="move_to_coin_wait <= 0.5\nsquared_error = 0.0\nsamples = 2\nvalue = -0.649"] ;
18 -> 19 ;
20 [label="squared_error = 0.0\nsamples = 1\nvalue = -0.654"] ;
19 -> 20 ;
21 [label="squared_error = 0.0\nsamples = 1\nvalue = -0.643"] ;
19 -> 21 ;
22 [label="squared_error = 0.0\nsamples = 1\nvalue = -0.677"] ;
18 -> 22 ;
23 [label="move_to_coin_right <= 0.5\nsquared_error = 0.002\nsamples = 10\nvalue = -0.572"] ;
3 -> 23 ;
24 [label="move_to_coin_wait <= 0.5\nsquared_error = 0.001\nsamples = 8\nvalue = -0.557"] ;
23 -> 24 ;
25 [label="move_left_allowed <= 0.5\nsquared_error = 0.0\nsamples = 4\nvalue = -0.578"] ;
24 -> 25 ;
26 [label="move_to_coin_down <= 0.5\nsquared_error = 0.0\nsamples = 2\nvalue = -0.592"] ;
25 -> 26 ;
27 [label="squared_error = 0.0\nsamples = 1\nvalue = -0.587"] ;
26 -> 27 ;
28 [label="squared_error = 0.0\nsamples = 1\nvalue = -0.597"] ;
26 -> 28 ;
29 [label="move_right_allowed <= 0.5\nsquared_error = 0.0\nsamples = 2\nvalue = -0.564"] ;
25 -> 29 ;
30 [label="squared_error = 0.0\nsamples = 1\nvalue = -0.582"] ;
29 -> 30 ;
31 [label="squared_error = 0.0\nsamples = 1\nvalue = -0.546"] ;
29 -> 31 ;
32 [label="move_right_allowed <= 0.5\nsquared_error = 0.0\nsamples = 4\nvalue = -0.535"] ;
24 -> 32 ;
33 [label="squared_error = 0.0\nsamples = 1\nvalue = -0.505"] ;
32 -> 33 ;
34 [label="move_left_allowed <= 0.5\nsquared_error = 0.0\nsamples = 3\nvalue = -0.545"] ;
32 -> 34 ;
35 [label="squared_error = 0.0\nsamples = 1\nvalue = -0.54"] ;
34 -> 35 ;
36 [label="move_to_safety_right <= 0.5\nsquared_error = 0.0\nsamples = 2\nvalue = -0.548"] ;
34 -> 36 ;
37 [label="squared_error = 0.0\nsamples = 1\nvalue = -0.546"] ;
36 -> 37 ;
38 [label="squared_error = -0.0\nsamples = 1\nvalue = -0.551"] ;
36 -> 38 ;
39 [label="move_right_allowed <= 0.5\nsquared_error = 0.002\nsamples = 2\nvalue = -0.633"] ;
23 -> 39 ;
40 [label="squared_error = 0.0\nsamples = 1\nvalue = -0.584"] ;
39 -> 40 ;
41 [label="squared_error = 0.0\nsamples = 1\nvalue = -0.683"] ;
39 -> 41 ;
42 [label="move_to_coin_wait <= 0.5\nsquared_error = 0.013\nsamples = 9\nvalue = -0.503"] ;
2 -> 42 ;
43 [label="move_left_allowed <= 0.5\nsquared_error = 0.002\nsamples = 5\nvalue = -0.418"] ;
42 -> 43 ;
44 [label="move_right_allowed <= 0.5\nsquared_error = 0.002\nsamples = 3\nvalue = -0.388"] ;
43 -> 44 ;
45 [label="squared_error = 0.0\nsamples = 1\nvalue = -0.338"] ;
44 -> 45 ;
46 [label="move_to_coin_left <= 0.5\nsquared_error = 0.001\nsamples = 2\nvalue = -0.413"] ;
44 -> 46 ;
47 [label="squared_error = 0.0\nsamples = 1\nvalue = -0.442"] ;
46 -> 47 ;
48 [label="squared_error = 0.0\nsamples = 1\nvalue = -0.384"] ;
46 -> 48 ;
49 [label="move_to_coin_down <= 0.5\nsquared_error = 0.0\nsamples = 2\nvalue = -0.462"] ;
43 -> 49 ;
50 [label="squared_error = 0.0\nsamples = 1\nvalue = -0.458"] ;
49 -> 50 ;
51 [label="squared_error = 0.0\nsamples = 1\nvalue = -0.467"] ;
49 -> 51 ;
52 [label="move_right_allowed <= 0.5\nsquared_error = 0.005\nsamples = 4\nvalue = -0.609"] ;
42 -> 52 ;
53 [label="move_left_allowed <= 0.5\nsquared_error = 0.002\nsamples = 2\nvalue = -0.579"] ;
52 -> 53 ;
54 [label="squared_error = 0.0\nsamples = 1\nvalue = -0.627"] ;
53 -> 54 ;
55 [label="squared_error = 0.0\nsamples = 1\nvalue = -0.531"] ;
53 -> 55 ;
56 [label="move_left_allowed <= 0.5\nsquared_error = 0.005\nsamples = 2\nvalue = -0.64"] ;
52 -> 56 ;
57 [label="squared_error = 0.0\nsamples = 1\nvalue = -0.566"] ;
56 -> 57 ;
58 [label="squared_error = 0.0\nsamples = 1\nvalue = -0.714"] ;
56 -> 58 ;
59 [label="in_blast_zone <= 0.5\nsquared_error = 0.102\nsamples = 44\nvalue = -0.8"] ;
1 -> 59 ;
60 [label="move_bomb_allowed <= 0.5\nsquared_error = 0.012\nsamples = 38\nvalue = -0.683"] ;
59 -> 60 ;
61 [label="move_right_allowed <= 0.5\nsquared_error = 0.009\nsamples = 19\nvalue = -0.635"] ;
60 -> 61 ;
62 [label="move_to_coin_right <= 0.5\nsquared_error = 0.004\nsamples = 8\nvalue = -0.696"] ;
61 -> 62 ;
63 [label="move_up_allowed <= 0.5\nsquared_error = 0.003\nsamples = 6\nvalue = -0.68"] ;
62 -> 63 ;
64 [label="move_left_allowed <= 0.5\nsquared_error = 0.0\nsamples = 2\nvalue = -0.632"] ;
63 -> 64 ;
65 [label="squared_error = 0.0\nsamples = 1\nvalue = -0.638"] ;
64 -> 65 ;
66 [label="squared_error = -0.0\nsamples = 1\nvalue = -0.626"] ;
64 -> 66 ;
67 [label="move_to_coin_down <= 0.5\nsquared_error = 0.003\nsamples = 4\nvalue = -0.704"] ;
63 -> 67 ;
68 [label="move_left_allowed <= 0.5\nsquared_error = 0.001\nsamples = 2\nvalue = -0.746"] ;
67 -> 68 ;
69 [label="squared_error = 0.0\nsamples = 1\nvalue = -0.778"] ;
68 -> 69 ;
70 [label="squared_error = -0.0\nsamples = 1\nvalue = -0.714"] ;
68 -> 70 ;
71 [label="move_left_allowed <= 0.5\nsquared_error = 0.001\nsamples = 2\nvalue = -0.662"] ;
67 -> 71 ;
72 [label="squared_error = 0.0\nsamples = 1\nvalue = -0.627"] ;
71 -> 72 ;
73 [label="squared_error = -0.0\nsamples = 1\nvalue = -0.697"] ;
71 -> 73 ;
74 [label="move_up_allowed <= 0.5\nsquared_error = 0.003\nsamples = 2\nvalue = -0.746"] ;
62 -> 74 ;
75 [label="squared_error = 0.0\nsamples = 1\nvalue = -0.802"] ;
74 -> 75 ;
76 [label="squared_error = -0.0\nsamples = 1\nvalue = -0.69"] ;
74 -> 76 ;
77 [label="move_left_allowed <= 0.5\nsquared_error = 0.008\nsamples = 11\nvalue = -0.59"] ;
61 -> 77 ;
78 [label="move_to_coin_left <= 0.5\nsquared_error = 0.003\nsamples = 4\nvalue = -0.64"] ;
77 -> 78 ;
79 [label="move_up_allowed <= 0.5\nsquared_error = 0.0\nsamples = 2\nvalue = -0.589"] ;
78 -> 79 ;
80 [label="squared_error = 0.0\nsamples = 1\nvalue = -0.568"] ;
79 -> 80 ;
81 [label="squared_error = -0.0\nsamples = 1\nvalue = -0.609"] ;
79 -> 81 ;
82 [label="move_up_allowed <= 0.5\nsquared_error = 0.0\nsamples = 2\nvalue = -0.691"] ;
78 -> 82 ;
83 [label="squared_error = 0.0\nsamples = 1\nvalue = -0.711"] ;
82 -> 83 ;
84 [label="squared_error = 0.0\nsamples = 1\nvalue = -0.67"] ;
82 -> 84 ;
85 [label="move_to_coin_left <= 0.5\nsquared_error = 0.008\nsamples = 7\nvalue = -0.562"] ;
77 -> 85 ;
86 [label="move_up_allowed <= 0.5\nsquared_error = 0.001\nsamples = 5\nvalue = -0.618"] ;
85 -> 86 ;
87 [label="move_to_coin_wait <= 0.5\nsquared_error = 0.0\nsamples = 2\nvalue = -0.596"] ;
86 -> 87 ;
88 [label="squared_error = 0.0\nsamples = 1\nvalue = -0.612"] ;
87 -> 88 ;
89 [label="squared_error = 0.0\nsamples = 1\nvalue = -0.58"] ;
87 -> 89 ;
90 [label="move_to_coin_right <= 0.5\nsquared_error = 0.0\nsamples = 3\nvalue = -0.632"] ;
86 -> 90 ;
91 [label="move_to_coin_wait <= 0.5\nsquared_error = 0.0\nsamples = 2\nvalue = -0.62"] ;
90 -> 91 ;
92 [label="squared_error = 0.0\nsamples = 1\nvalue = -0.614"] ;
91 -> 92 ;
93 [label="squared_error = 0.0\nsamples = 1\nvalue = -0.626"] ;
91 -> 93 ;
94 [label="squared_error = 0.0\nsamples = 1\nvalue = -0.656"] ;
90 -> 94 ;
95 [label="move_up_allowed <= 0.5\nsquared_error = 0.0\nsamples = 2\nvalue = -0.423"] ;
85 -> 95 ;
96 [label="squared_error = 0.0\nsamples = 1\nvalue = -0.421"] ;
95 -> 96 ;
97 [label="squared_error = 0.0\nsamples = 1\nvalue = -0.425"] ;
95 -> 97 ;
98 [label="move_up_allowed <= 0.5\nsquared_error = 0.01\nsamples = 19\nvalue = -0.732"] ;
60 -> 98 ;
99 [label="move_right_allowed <= 0.5\nsquared_error = 0.019\nsamples = 7\nvalue = -0.673"] ;
98 -> 99 ;
100 [label="move_to_coin_wait <= 0.5\nsquared_error = 0.007\nsamples = 2\nvalue = -0.767"] ;
99 -> 100 ;
101 [label="squared_error = 0.0\nsamples = 1\nvalue = -0.853"] ;
100 -> 101 ;
102 [label="squared_error = 0.0\nsamples = 1\nvalue = -0.68"] ;
100 -> 102 ;
103 [label="move_left_allowed <= 0.5\nsquared_error = 0.019\nsamples = 5\nvalue = -0.636"] ;
99 -> 103 ;
104 [label="move_to_coin_wait <= 0.5\nsquared_error = 0.007\nsamples = 2\nvalue = -0.767"] ;
103 -> 104 ;
105 [label="squared_error = 0.0\nsamples = 1\nvalue = -0.849"] ;
104 -> 105 ;
106 [label="squared_error = -0.0\nsamples = 1\nvalue = -0.684"] ;
104 -> 106 ;
107 [label="move_to_coin_wait <= 0.5\nsquared_error = 0.008\nsamples = 3\nvalue = -0.549"] ;
103 -> 107 ;
108 [label="move_to_coin_right <= 0.5\nsquared_error = 0.0\nsamples = 2\nvalue = -0.488"] ;
107 -> 108 ;
109 [label="squared_error = 0.0\nsamples = 1\nvalue = -0.502"] ;
108 -> 109 ;
110 [label="squared_error = 0.0\nsamples = 1\nvalue = -0.473"] ;
108 -> 110 ;
111 [label="squared_error = 0.0\nsamples = 1\nvalue = -0.672"] ;
107 -> 111 ;
112 [label="move_left_allowed <= 0.5\nsquared_error = 0.002\nsamples = 12\nvalue = -0.766"] ;
98 -> 112 ;
113 [label="move_to_coin_wait <= 0.5\nsquared_error = 0.002\nsamples = 5\nvalue = -0.741"] ;
112 -> 113 ;
114 [label="move_right_allowed <= 0.5\nsquared_error = 0.0\nsamples = 3\nvalue = -0.772"] ;
113 -> 114 ;
115 [label="squared_error = 0.0\nsamples = 1\nvalue = -0.742"] ;
114 -> 115 ;
116 [label="move_to_coin_left <= 0.5\nsquared_error = 0.0\nsamples = 2\nvalue = -0.788"] ;
114 -> 116 ;
117 [label="squared_error = 0.0\nsamples = 1\nvalue = -0.788"] ;
116 -> 117 ;
118 [label="squared_error = 0.0\nsamples = 1\nvalue = -0.788"] ;
116 -> 118 ;
119 [label="move_right_allowed <= 0.5\nsquared_error = 0.001\nsamples = 2\nvalue = -0.694"] ;
113 -> 119 ;
120 [label="squared_error = 0.0\nsamples = 1\nvalue = -0.657"] ;
119 -> 120 ;
121 [label="squared_error = 0.0\nsamples = 1\nvalue = -0.73"] ;
119 -> 121 ;
122 [label="move_to_coin_right <= 0.5\nsquared_error = 0.001\nsamples = 7\nvalue = -0.784"] ;
112 -> 122 ;
123 [label="move_to_coin_left <= 0.5\nsquared_error = 0.0\nsamples = 5\nvalue = -0.774"] ;
122 -> 123 ;
124 [label="move_to_coin_down <= 0.5\nsquared_error = 0.0\nsamples = 4\nvalue = -0.781"] ;
123 -> 124 ;
125 [label="move_right_allowed <= 0.5\nsquared_error = 0.0\nsamples = 2\nvalue = -0.788"] ;
124 -> 125 ;
126 [label="squared_error = 0.0\nsamples = 1\nvalue = -0.778"] ;
125 -> 126 ;
127 [label="squared_error = 0.0\nsamples = 1\nvalue = -0.798"] ;
125 -> 127 ;
128 [label="move_right_allowed <= 0.5\nsquared_error = 0.0\nsamples = 2\nvalue = -0.774"] ;
124 -> 128 ;
129 [label="squared_error = 0.0\nsamples = 1\nvalue = -0.795"] ;
128 -> 129 ;
130 [label="squared_error = 0.0\nsamples = 1\nvalue = -0.754"] ;
128 -> 130 ;
131 [label="squared_error = 0.0\nsamples = 1\nvalue = -0.747"] ;
123 -> 131 ;
132 [label="move_right_allowed <= 0.5\nsquared_error = 0.0\nsamples = 2\nvalue = -0.809"] ;
122 -> 132 ;
133 [label="squared_error = 0.0\nsamples = 1\nvalue = -0.818"] ;
132 -> 133 ;
134 [label="squared_error = 0.0\nsamples = 1\nvalue = -0.8"] ;
132 -> 134 ;
135 [label="move_up_allowed <= 0.5\nsquared_error = 0.034\nsamples = 6\nvalue = -1.541"] ;
59 -> 135 ;
136 [label="move_left_allowed <= 0.5\nsquared_error = 0.034\nsamples = 3\nvalue = -1.464"] ;
135 -> 136 ;
137 [label="squared_error = 0.0\nsamples = 1\nvalue = -1.64"] ;
136 -> 137 ;
138 [label="move_right_allowed <= 0.5\nsquared_error = 0.028\nsamples = 2\nvalue = -1.376"] ;
136 -> 138 ;
139 [label="squared_error = 0.0\nsamples = 1\nvalue = -1.543"] ;
138 -> 139 ;
140 [label="squared_error = -0.0\nsamples = 1\nvalue = -1.209"] ;
138 -> 140 ;
141 [label="move_left_allowed <= 0.5\nsquared_error = 0.023\nsamples = 3\nvalue = -1.619"] ;
135 -> 141 ;
142 [label="move_right_allowed <= 0.5\nsquared_error = 0.019\nsamples = 2\nvalue = -1.548"] ;
141 -> 142 ;
143 [label="squared_error = 0.0\nsamples = 1\nvalue = -1.41"] ;
142 -> 143 ;
144 [label="squared_error = 0.0\nsamples = 1\nvalue = -1.686"] ;
142 -> 144 ;
145 [label="squared_error = 0.0\nsamples = 1\nvalue = -1.76"] ;
141 -> 145 ;
146 [label="move_to_coin_up <= 0.5\nsquared_error = 0.173\nsamples = 102\nvalue = 0.191"] ;
0 -> 146 [labeldistance=2.5, labelangle=-45, headlabel="False"] ;
147 [label="move_to_safety_up <= 0.5\nsquared_error = 0.145\nsamples = 72\nvalue = 0.093"] ;
146 -> 147 ;
148 [label="in_blast_zone <= 0.5\nsquared_error = 0.157\nsamples = 54\nvalue = 0.008"] ;
147 -> 148 ;
149 [label="move_to_coin_wait <= 0.5\nsquared_error = 0.021\nsamples = 32\nvalue = 0.195"] ;
148 -> 149 ;
150 [label="move_up_allowed <= 0.5\nsquared_error = 0.006\nsamples = 16\nvalue = 0.109"] ;
149 -> 150 ;
151 [label="move_to_coin_left <= 0.5\nsquared_error = 0.001\nsamples = 8\nvalue = 0.041"] ;
150 -> 151 ;
152 [label="move_right_allowed <= 0.5\nsquared_error = 0.001\nsamples = 4\nvalue = 0.057"] ;
151 -> 152 ;
153 [label="move_bomb_allowed <= 0.5\nsquared_error = 0.0\nsamples = 2\nvalue = 0.036"] ;
152 -> 153 ;
154 [label="squared_error = 0.0\nsamples = 1\nvalue = 0.057"] ;
153 -> 154 ;
155 [label="squared_error = -0.0\nsamples = 1\nvalue = 0.015"] ;
153 -> 155 ;
156 [label="move_bomb_allowed <= 0.5\nsquared_error = 0.0\nsamples = 2\nvalue = 0.077"] ;
152 -> 156 ;
157 [label="squared_error = 0.0\nsamples = 1\nvalue = 0.079"] ;
156 -> 157 ;
158 [label="squared_error = 0.0\nsamples = 1\nvalue = 0.076"] ;
156 -> 158 ;
159 [label="move_bomb_allowed <= 0.5\nsquared_error = 0.0\nsamples = 4\nvalue = 0.025"] ;
151 -> 159 ;
160 [label="move_left_allowed <= 0.5\nsquared_error = 0.0\nsamples = 2\nvalue = 0.04"] ;
159 -> 160 ;
161 [label="squared_error = 0.0\nsamples = 1\nvalue = 0.045"] ;
160 -> 161 ;
162 [label="squared_error = 0.0\nsamples = 1\nvalue = 0.034"] ;
160 -> 162 ;
163 [label="move_left_allowed <= 0.5\nsquared_error = 0.0\nsamples = 2\nvalue = 0.01"] ;
159 -> 163 ;
164 [label="squared_error = 0.0\nsamples = 1\nvalue = 0.016"] ;
163 -> 164 ;
165 [label="squared_error = -0.0\nsamples = 1\nvalue = 0.005"] ;
163 -> 165 ;
166 [label="move_to_coin_right <= 0.5\nsquared_error = 0.003\nsamples = 8\nvalue = 0.177"] ;
150 -> 166 ;
167 [label="move_to_coin_down <= 0.5\nsquared_error = 0.001\nsamples = 5\nvalue = 0.143"] ;
166 -> 167 ;
168 [label="squared_error = 0.0\nsamples = 1\nvalue = 0.101"] ;
167 -> 168 ;
169 [label="move_left_allowed <= 0.5\nsquared_error = 0.001\nsamples = 4\nvalue = 0.154"] ;
167 -> 169 ;
170 [label="move_right_allowed <= 0.5\nsquared_error = 0.0\nsamples = 3\nvalue = 0.17"] ;
169 -> 170 ;
171 [label="move_bomb_allowed <= 0.5\nsquared_error = 0.0\nsamples = 2\nvalue = 0.179"] ;
170 -> 171 ;
172 [label="squared_error = 0.0\nsamples = 1\nvalue = 0.183"] ;
171 -> 172 ;
173 [label="squared_error = 0.0\nsamples = 1\nvalue = 0.175"] ;
171 -> 173 ;
174 [label="squared_error = -0.0\nsamples = 1\nvalue = 0.15"] ;
170 -> 174 ;
175 [label="squared_error = -0.0\nsamples = 1\nvalue = 0.107"] ;
169 -> 175 ;
176 [label="move_right_allowed <= 0.5\nsquared_error = 0.001\nsamples = 3\nvalue = 0.234"] ;
166 -> 176 ;
177 [label="move_bomb_allowed <= 0.5\nsquared_error = 0.0\nsamples = 2\nvalue = 0.215"] ;
176 -> 177 ;
178 [label="squared_error = 0.0\nsamples = 1\nvalue = 0.22"] ;
177 -> 178 ;
179 [label="squared_error = -0.0\nsamples = 1\nvalue = 0.209"] ;
177 -> 179 ;
180 [label="squared_error = 0.0\nsamples = 1\nvalue = 0.271"] ;
176 -> 180 ;
181 [label="move_bomb_allowed <= 0.5\nsquared_error = 0.021\nsamples = 16\nvalue = 0.281"] ;
149 -> 181 ;
182 [label="move_left_allowed <= 0.5\nsquared_error = 0.01\nsamples = 8\nvalue = 0.378"] ;
181 -> 182 ;
183 [label="move_up_allowed <= 0.5\nsquared_error = 0.001\nsamples = 4\nvalue = 0.433"] ;
182 -> 183 ;
184 [label="move_right_allowed <= 0.5\nsquared_error = 0.001\nsamples = 2\nvalue = 0.414"] ;
183 -> 184 ;
185 [label="squared_error = 0.0\nsamples = 1\nvalue = 0.446"] ;
184 -> 185 ;
186 [label="squared_error = 0.0\nsamples = 1\nvalue = 0.382"] ;
184 -> 186 ;
187 [label="move_right_allowed <= 0.5\nsquared_error = 0.0\nsamples = 2\nvalue = 0.452"] ;
183 -> 187 ;
188 [label="squared_error = 0.0\nsamples = 1\nvalue = 0.452"] ;
187 -> 188 ;
189 [label="squared_error = 0.0\nsamples = 1\nvalue = 0.452"] ;
187 -> 189 ;
190 [label="move_up_allowed <= 0.5\nsquared_error = 0.013\nsamples = 4\nvalue = 0.322"] ;
182 -> 190 ;
191 [label="move_right_allowed <= 0.5\nsquared_error = 0.015\nsamples = 2\nvalue = 0.303"] ;
190 -> 191 ;
192 [label="squared_error = 0.0\nsamples = 1\nvalue = 0.426"] ;
191 -> 192 ;
193 [label="squared_error = -0.0\nsamples = 1\nvalue = 0.18"] ;
191 -> 193 ;
194 [label="move_right_allowed <= 0.5\nsquared_error = 0.01\nsamples = 2\nvalue = 0.342"] ;
190 -> 194 ;
195 [label="squared_error = 0.0\nsamples = 1\nvalue = 0.241"] ;
194 -> 195 ;
196 [label="squared_error = -0.0\nsamples = 1\nvalue = 0.443"] ;
194 -> 196 ;
197 [label="move_right_allowed <= 0.5\nsquared_error = 0.013\nsamples = 8\nvalue = 0.184"] ;
181 -> 197 ;
198 [label="move_up_allowed <= 0.5\nsquared_error = 0.008\nsamples = 4\nvalue = 0.239"] ;
197 -> 198 ;
199 [label="move_left_allowed <= 0.5\nsquared_error = 0.002\nsamples = 2\nvalue = 0.287"] ;
198 -> 199 ;
200 [label="squared_error = 0.0\nsamples = 1\nvalue = 0.247"] ;
199 -> 200 ;
201 [label="squared_error = 0.0\nsamples = 1\nvalue = 0.327"] ;
199 -> 201 ;
202 [label="move_left_allowed <= 0.5\nsquared_error = 0.011\nsamples = 2\nvalue = 0.191"] ;
198 -> 202 ;
203 [label="squared_error = 0.0\nsamples = 1\nvalue = 0.294"] ;
202 -> 203 ;
204 [label="squared_error = 0.0\nsamples = 1\nvalue = 0.089"] ;
202 -> 204 ;
205 [label="move_left_allowed <= 0.5\nsquared_error = 0.012\nsamples = 4\nvalue = 0.129"] ;
197 -> 205 ;
206 [label="move_up_allowed <= 0.5\nsquared_error = 0.011\nsamples = 2\nvalue = 0.204"] ;
205 -> 206 ;
207 [label="squared_error = 0.0\nsamples = 1\nvalue = 0.311"] ;
206 -> 207 ;
208 [label="squared_error = 0.0\nsamples = 1\nvalue = 0.098"] ;
206 -> 208 ;
209 [label="move_up_allowed <= 0.5\nsquared_error = 0.0\nsamples = 2\nvalue = 0.053"] ;
205 -> 209 ;
210 [label="squared_error = 0.0\nsamples = 1\nvalue = 0.066"] ;
209 -> 210 ;
211 [label="squared_error = 0.0\nsamples = 1\nvalue = 0.039"] ;
209 -> 211 ;
212 [label="move_to_safety_wait <= 0.5\nsquared_error = 0.23\nsamples = 22\nvalue = -0.265"] ;
148 -> 212 ;
213 [label="move_to_safety_down <= 0.5\nsquared_error = 0.079\nsamples = 18\nvalue = -0.078"] ;
212 -> 213 ;
214 [label="move_left_allowed <= 0.5\nsquared_error = 0.031\nsamples = 11\nvalue = -0.261"] ;
213 -> 214 ;
215 [label="move_up_allowed <= 0.5\nsquared_error = 0.009\nsamples = 3\nvalue = -0.432"] ;
214 -> 215 ;
216 [label="move_to_coin_left <= 0.5\nsquared_error = 0.001\nsamples = 2\nvalue = -0.496"] ;
215 -> 216 ;
217 [label="squared_error = 0.0\nsamples = 1\nvalue = -0.522"] ;
216 -> 217 ;
218 [label="squared_error = 0.0\nsamples = 1\nvalue = -0.47"] ;
216 -> 218 ;
219 [label="squared_error = 0.0\nsamples = 1\nvalue = -0.304"] ;
215 -> 219 ;
220 [label="move_up_allowed <= 0.5\nsquared_error = 0.025\nsamples = 8\nvalue = -0.197"] ;
214 -> 220 ;
221 [label="move_right_allowed <= 0.5\nsquared_error = 0.021\nsamples = 5\nvalue = -0.261"] ;
220 -> 221 ;
222 [label="squared_error = 0.0\nsamples = 1\nvalue = -0.51"] ;
221 -> 222 ;
223 [label="move_to_coin_left <= 0.5\nsquared_error = 0.007\nsamples = 4\nvalue = -0.198"] ;
221 -> 223 ;
224 [label="move_to_safety_left <= 0.5\nsquared_error = 0.003\nsamples = 3\nvalue = -0.156"] ;
223 -> 224 ;
225 [label="squared_error = 0.0\nsamples = 1\nvalue = -0.215"] ;
224 -> 225 ;
226 [label="move_to_coin_right <= 0.5\nsquared_error = 0.001\nsamples = 2\nvalue = -0.126"] ;
224 -> 226 ;
227 [label="squared_error = 0.0\nsamples = 1\nvalue = -0.09"] ;
226 -> 227 ;
228 [label="squared_error = -0.0\nsamples = 1\nvalue = -0.162"] ;
226 -> 228 ;
229 [label="squared_error = 0.0\nsamples = 1\nvalue = -0.327"] ;
223 -> 229 ;
230 [label="move_to_coin_wait <= 0.5\nsquared_error = 0.012\nsamples = 3\nvalue = -0.091"] ;
220 -> 230 ;
231 [label="squared_error = 0.0\nsamples = 1\nvalue = -0.246"] ;
230 -> 231 ;
232 [label="move_right_allowed <= 0.5\nsquared_error = 0.001\nsamples = 2\nvalue = -0.013"] ;
230 -> 232 ;
233 [label="squared_error = 0.0\nsamples = 1\nvalue = 0.01"] ;
232 -> 233 ;
234 [label="squared_error = 0.0\nsamples = 1\nvalue = -0.037"] ;
232 -> 234 ;
235 [label="move_to_coin_down <= 0.5\nsquared_error = 0.019\nsamples = 7\nvalue = 0.209"] ;
213 -> 235 ;
236 [label="move_right_allowed <= 0.5\nsquared_error = 0.011\nsamples = 6\nvalue = 0.249"] ;
235 -> 236 ;
237 [label="move_left_allowed <= 0.5\nsquared_error = 0.001\nsamples = 3\nvalue = 0.349"] ;
236 -> 237 ;
238 [label="squared_error = 0.0\nsamples = 1\nvalue = 0.317"] ;
237 -> 238 ;
239 [label="move_to_coin_right <= 0.5\nsquared_error = 0.001\nsamples = 2\nvalue = 0.365"] ;
237 -> 239 ;
240 [label="squared_error = 0.0\nsamples = 1\nvalue = 0.399"] ;
239 -> 240 ;
241 [label="squared_error = 0.0\nsamples = 1\nvalue = 0.332"] ;
239 -> 241 ;
242 [label="move_left_allowed <= 0.5\nsquared_error = 0.001\nsamples = 3\nvalue = 0.149"] ;
236 -> 242 ;
243 [label="squared_error = 0.0\nsamples = 1\nvalue = 0.095"] ;
242 -> 243 ;
244 [label="move_to_coin_right <= 0.5\nsquared_error = 0.0\nsamples = 2\nvalue = 0.176"] ;
242 -> 244 ;
245 [label="squared_error = 0.0\nsamples = 1\nvalue = 0.176"] ;
244 -> 245 ;
246 [label="squared_error = -0.0\nsamples = 1\nvalue = 0.176"] ;
244 -> 246 ;
247 [label="squared_error = 0.0\nsamples = 1\nvalue = -0.032"] ;
235 -> 247 ;
248 [label="move_up_allowed <= 0.5\nsquared_error = 0.046\nsamples = 4\nvalue = -1.104"] ;
212 -> 248 ;
249 [label="move_right_allowed <= 0.5\nsquared_error = 0.041\nsamples = 3\nvalue = -1.175"] ;
248 -> 249 ;
250 [label="move_left_allowed <= 0.5\nsquared_error = 0.046\nsamples = 2\nvalue = -1.247"] ;
249 -> 250 ;
251 [label="squared_error = 0.0\nsamples = 1\nvalue = -1.462"] ;
250 -> 251 ;
252 [label="squared_error = 0.0\nsamples = 1\nvalue = -1.033"] ;
250 -> 252 ;
253 [label="squared_error = -0.0\nsamples = 1\nvalue = -1.031"] ;
249 -> 253 ;
254 [label="squared_error = 0.0\nsamples = 1\nvalue = -0.891"] ;
248 -> 254 ;
255 [label="move_to_coin_wait <= 0.5\nsquared_error = 0.022\nsamples = 18\nvalue = 0.347"] ;
147 -> 255 ;
256 [label="move_to_coin_right <= 0.5\nsquared_error = 0.011\nsamples = 10\nvalue = 0.254"] ;
255 -> 256 ;
257 [label="move_left_allowed <= 0.5\nsquared_error = 0.005\nsamples = 6\nvalue = 0.186"] ;
256 -> 257 ;
258 [label="move_up_allowed <= 0.5\nsquared_error = 0.005\nsamples = 4\nvalue = 0.164"] ;
257 -> 258 ;
259 [label="squared_error = 0.0\nsamples = 1\nvalue = 0.064"] ;
258 -> 259 ;
260 [label="move_to_coin_down <= 0.5\nsquared_error = 0.002\nsamples = 3\nvalue = 0.197"] ;
258 -> 260 ;
261 [label="squared_error = 0.0\nsamples = 1\nvalue = 0.255"] ;
260 -> 261 ;
262 [label="move_right_allowed <= 0.5\nsquared_error = 0.001\nsamples = 2\nvalue = 0.168"] ;
260 -> 262 ;
263 [label="squared_error = 0.0\nsamples = 1\nvalue = 0.192"] ;
262 -> 263 ;
264 [label="squared_error = 0.0\nsamples = 1\nvalue = 0.144"] ;
262 -> 264 ;
265 [label="move_to_coin_left <= 0.5\nsquared_error = 0.001\nsamples = 2\nvalue = 0.23"] ;
257 -> 265 ;
266 [label="squared_error = 0.0\nsamples = 1\nvalue = 0.193"] ;
265 -> 266 ;
267 [label="squared_error = 0.0\nsamples = 1\nvalue = 0.267"] ;
265 -> 267 ;
268 [label="move_up_allowed <= 0.5\nsquared_error = 0.003\nsamples = 4\nvalue = 0.357"] ;
256 -> 268 ;
269 [label="move_right_allowed <= 0.5\nsquared_error = 0.002\nsamples = 2\nvalue = 0.314"] ;
268 -> 269 ;
270 [label="squared_error = 0.0\nsamples = 1\nvalue = 0.353"] ;
269 -> 270 ;
271 [label="squared_error = 0.0\nsamples = 1\nvalue = 0.275"] ;
269 -> 271 ;
272 [label="move_right_allowed <= 0.5\nsquared_error = 0.001\nsamples = 2\nvalue = 0.401"] ;
268 -> 272 ;
273 [label="squared_error = 0.0\nsamples = 1\nvalue = 0.431"] ;
272 -> 273 ;
274 [label="squared_error = 0.0\nsamples = 1\nvalue = 0.37"] ;
272 -> 274 ;
275 [label="move_up_allowed <= 0.5\nsquared_error = 0.012\nsamples = 8\nvalue = 0.463"] ;
255 -> 275 ;
276 [label="move_right_allowed <= 0.5\nsquared_error = 0.011\nsamples = 4\nvalue = 0.526"] ;
275 -> 276 ;
277 [label="move_left_allowed <= 0.5\nsquared_error = 0.008\nsamples = 2\nvalue = 0.59"] ;
276 -> 277 ;
278 [label="squared_error = 0.0\nsamples = 1\nvalue = 0.5"] ;
277 -> 278 ;
279 [label="squared_error = -0.0\nsamples = 1\nvalue = 0.68"] ;
277 -> 279 ;
280 [label="move_left_allowed <= 0.5\nsquared_error = 0.006\nsamples = 2\nvalue = 0.462"] ;
276 -> 280 ;
281 [label="squared_error = 0.0\nsamples = 1\nvalue = 0.542"] ;
280 -> 281 ;
282 [label="squared_error = 0.0\nsamples = 1\nvalue = 0.382"] ;
280 -> 282 ;
283 [label="move_left_allowed <= 0.5\nsquared_error = 0.004\nsamples = 4\nvalue = 0.401"] ;
275 -> 283 ;
284 [label="move_right_allowed <= 0.5\nsquared_error = 0.001\nsamples = 2\nvalue = 0.454"] ;
283 -> 284 ;
285 [label="squared_error = 0.0\nsamples = 1\nvalue = 0.488"] ;
284 -> 285 ;
286 [label="squared_error = -0.0\nsamples = 1\nvalue = 0.42"] ;
284 -> 286 ;
287 [label="move_right_allowed <= 0.5\nsquared_error = 0.002\nsamples = 2\nvalue = 0.348"] ;
283 -> 287 ;
288 [label="squared_error = 0.0\nsamples = 1\nvalue = 0.394"] ;
287 -> 288 ;
289 [label="squared_error = 0.0\nsamples = 1\nvalue = 0.303"] ;
287 -> 289 ;
290 [label="move_to_safety_left <= 0.5\nsquared_error = 0.162\nsamples = 30\nvalue = 0.426"] ;
146 -> 290 ;
291 [label="move_to_safety_right <= 0.5\nsquared_error = 0.12\nsamples = 28\nvalue = 0.485"] ;
290 -> 291 ;
292 [label="move_right_allowed <= 0.5\nsquared_error = 0.079\nsamples = 27\nvalue = 0.526"] ;
291 -> 292 ;
293 [label="move_bomb_allowed <= 0.5\nsquared_error = 0.095\nsamples = 14\nvalue = 0.605"] ;
292 -> 293 ;
294 [label="move_to_safety_wait <= 0.5\nsquared_error = 0.076\nsamples = 10\nvalue = 0.528"] ;
293 -> 294 ;
295 [label="move_up_allowed <= 0.5\nsquared_error = 0.069\nsamples = 6\nvalue = 0.491"] ;
294 -> 295 ;
296 [label="move_left_allowed <= 0.5\nsquared_error = 0.11\nsamples = 2\nvalue = 0.417"] ;
295 -> 296 ;
297 [label="squared_error = 0.0\nsamples = 1\nvalue = 0.085"] ;
296 -> 297 ;
298 [label="squared_error = 0.0\nsamples = 1\nvalue = 0.75"] ;
296 -> 298 ;
299 [label="move_left_allowed <= 0.5\nsquared_error = 0.045\nsamples = 4\nvalue = 0.528"] ;
295 -> 299 ;
300 [label="move_to_safety_down <= 0.5\nsquared_error = 0.005\nsamples = 2\nvalue = 0.694"] ;
299 -> 300 ;
301 [label="squared_error = 0.0\nsamples = 1\nvalue = 0.624"] ;
300 -> 301 ;
302 [label="squared_error = -0.0\nsamples = 1\nvalue = 0.764"] ;
300 -> 302 ;
303 [label="move_to_safety_down <= 0.5\nsquared_error = 0.029\nsamples = 2\nvalue = 0.362"] ;
299 -> 303 ;
304 [label="squared_error = 0.0\nsamples = 1\nvalue = 0.533"] ;
303 -> 304 ;
305 [label="squared_error = 0.0\nsamples = 1\nvalue = 0.19"] ;
303 -> 305 ;
306 [label="move_left_allowed <= 0.5\nsquared_error = 0.08\nsamples = 4\nvalue = 0.585"] ;
294 -> 306 ;
307 [label="move_up_allowed <= 0.5\nsquared_error = 0.026\nsamples = 2\nvalue = 0.686"] ;
306 -> 307 ;
308 [label="squared_error = 0.0\nsamples = 1\nvalue = 0.526"] ;
307 -> 308 ;
309 [label="squared_error = 0.0\nsamples = 1\nvalue = 0.846"] ;
307 -> 309 ;
310 [label="move_up_allowed <= 0.5\nsquared_error = 0.115\nsamples = 2\nvalue = 0.483"] ;
306 -> 310 ;
311 [label="squared_error = 0.0\nsamples = 1\nvalue = 0.822"] ;
310 -> 311 ;
312 [label="squared_error = 0.0\nsamples = 1\nvalue = 0.145"] ;
310 -> 312 ;
313 [label="move_up_allowed <= 0.5\nsquared_error = 0.093\nsamples = 4\nvalue = 0.796"] ;
293 -> 313 ;
314 [label="move_left_allowed <= 0.5\nsquared_error = 0.048\nsamples = 2\nvalue = 0.543"] ;
313 -> 314 ;
315 [label="squared_error = 0.0\nsamples = 1\nvalue = 0.324"] ;
314 -> 315 ;
316 [label="squared_error = 0.0\nsamples = 1\nvalue = 0.762"] ;
314 -> 316 ;
317 [label="move_left_allowed <= 0.5\nsquared_error = 0.011\nsamples = 2\nvalue = 1.049"] ;
313 -> 317 ;
318 [label="squared_error = 0.0\nsamples = 1\nvalue = 1.152"] ;
317 -> 318 ;
319 [label="squared_error = 0.0\nsamples = 1\nvalue = 0.946"] ;
317 -> 319 ;
320 [label="move_up_allowed <= 0.5\nsquared_error = 0.047\nsamples = 13\nvalue = 0.44"] ;
292 -> 320 ;
321 [label="in_blast_zone <= 0.5\nsquared_error = 0.054\nsamples = 6\nvalue = 0.566"] ;
320 -> 321 ;
322 [label="move_left_allowed <= 0.5\nsquared_error = 0.06\nsamples = 4\nvalue = 0.647"] ;
321 -> 322 ;
323 [label="move_bomb_allowed <= 0.5\nsquared_error = 0.001\nsamples = 2\nvalue = 0.826"] ;
322 -> 323 ;
324 [label="squared_error = 0.0\nsamples = 1\nvalue = 0.791"] ;
323 -> 324 ;
325 [label="squared_error = 0.0\nsamples = 1\nvalue = 0.862"] ;
323 -> 325 ;
326 [label="move_bomb_allowed <= 0.5\nsquared_error = 0.054\nsamples = 2\nvalue = 0.468"] ;
322 -> 326 ;
327 [label="squared_error = 0.0\nsamples = 1\nvalue = 0.701"] ;
326 -> 327 ;
328 [label="squared_error = 0.0\nsamples = 1\nvalue = 0.236"] ;
326 -> 328 ;
329 [label="move_left_allowed <= 0.5\nsquared_error = 0.001\nsamples = 2\nvalue = 0.403"] ;
321 -> 329 ;
330 [label="squared_error = 0.0\nsamples = 1\nvalue = 0.37"] ;
329 -> 330 ;
331 [label="squared_error = -0.0\nsamples = 1\nvalue = 0.436"] ;
329 -> 331 ;
332 [label="in_blast_zone <= 0.5\nsquared_error = 0.017\nsamples = 7\nvalue = 0.333"] ;
320 -> 332 ;
333 [label="move_bomb_allowed <= 0.5\nsquared_error = 0.011\nsamples = 4\nvalue = 0.277"] ;
332 -> 333 ;
334 [label="move_left_allowed <= 0.5\nsquared_error = 0.007\nsamples = 2\nvalue = 0.2"] ;
333 -> 334 ;
335 [label="squared_error = 0.0\nsamples = 1\nvalue = 0.115"] ;
334 -> 335 ;
336 [label="squared_error = 0.0\nsamples = 1\nvalue = 0.285"] ;
334 -> 336 ;
337 [label="move_left_allowed <= 0.5\nsquared_error = 0.003\nsamples = 2\nvalue = 0.353"] ;
333 -> 337 ;
338 [label="squared_error = 0.0\nsamples = 1\nvalue = 0.302"] ;
337 -> 338 ;
339 [label="squared_error = 0.0\nsamples = 1\nvalue = 0.404"] ;
337 -> 339 ;
340 [label="move_left_allowed <= 0.5\nsquared_error = 0.015\nsamples = 3\nvalue = 0.408"] ;
332 -> 340 ;
341 [label="move_to_safety_down <= 0.5\nsquared_error = 0.003\nsamples = 2\nvalue = 0.488"] ;
340 -> 341 ;
342 [label="squared_error = 0.0\nsamples = 1\nvalue = 0.435"] ;
341 -> 342 ;
343 [label="squared_error = 0.0\nsamples = 1\nvalue = 0.542"] ;
341 -> 343 ;
344 [label="squared_error = -0.0\nsamples = 1\nvalue = 0.246"] ;
340 -> 344 ;
345 [label="squared_error = 0.0\nsamples = 1\nvalue = -0.603"] ;
291 -> 345 ;
346 [label="move_up_allowed <= 0.5\nsquared_error = 0.001\nsamples = 2\nvalue = -0.41"] ;
290 -> 346 ;
347 [label="squared_error = 0.0\nsamples = 1\nvalue = -0.443"] ;
346 -> 347 ;
348 [label="squared_error = -0.0\nsamples = 1\nvalue = -0.378"] ;
346 -> 348 ;
}