digraph Tree {
node [shape=box, fontname="helvetica"] ;
edge [fontname="helvetica"] ;
0 [label="move_to_coin_down <= 0.5\nsquared_error = 0.004\nsamples = 4\nvalue = 0.714"] ;
1 [label="move_to_coin_right <= 0.5\nsquared_error = 0.0\nsamples = 3\nvalue = 0.751"] ;
0 -> 1 [labeldistance=2.5, labelangle=45, headlabel="True"] ;
2 [label="squared_error = 0.0\nsamples = 2\nvalue = 0.736"] ;
1 -> 2 ;
3 [label="squared_error = -0.0\nsamples = 1\nvalue = 0.781"] ;
1 -> 3 ;
4 [label="squared_error = 0.0\nsamples = 1\nvalue = 0.605"] ;
0 -> 4 [labeldistance=2.5, labelangle=-45, headlabel="False"] ;
}