digraph Tree {
node [shape=box, fontname="helvetica"] ;
edge [fontname="helvetica"] ;
0 [label="move_to_coin_distance <= 1.5\nsquared_error = 0.003\nsamples = 24\nvalue = 0.032"] ;
1 [label="move_wait_to_coin <= 0.5\nsquared_error = 0.001\nsamples = 5\nvalue = 0.136"] ;
0 -> 1 [labeldistance=2.5, labelangle=45, headlabel="True"] ;
2 [label="move_left_to_coin <= 0.5\nsquared_error = 0.0\nsamples = 4\nvalue = 0.152"] ;
1 -> 2 ;
3 [label="squared_error = 0.0\nsamples = 3\nvalue = 0.15"] ;
2 -> 3 ;
4 [label="squared_error = 0.0\nsamples = 1\nvalue = 0.158"] ;
2 -> 4 ;
5 [label="squared_error = -0.0\nsamples = 1\nvalue = 0.072"] ;
1 -> 5 ;
6 [label="move_to_coin_distance <= 2.5\nsquared_error = 0.0\nsamples = 19\nvalue = 0.005"] ;
0 -> 6 [labeldistance=2.5, labelangle=-45, headlabel="False"] ;
7 [label="move_right_to_coin <= 0.5\nsquared_error = 0.0\nsamples = 4\nvalue = 0.023"] ;
6 -> 7 ;
8 [label="squared_error = 0.0\nsamples = 3\nvalue = 0.024"] ;
7 -> 8 ;
9 [label="squared_error = 0.0\nsamples = 1\nvalue = 0.02"] ;
7 -> 9 ;
10 [label="move_to_coin_distance <= 3.5\nsquared_error = 0.0\nsamples = 15\nvalue = 0.0"] ;
6 -> 10 ;
11 [label="squared_error = 0.0\nsamples = 4\nvalue = 0.001"] ;
10 -> 11 ;
12 [label="squared_error = 0.0\nsamples = 11\nvalue = 0.0"] ;
10 -> 12 ;
}