digraph Tree {
node [shape=box, fontname="helvetica"] ;
edge [fontname="helvetica"] ;
0 [label="actionToNearestCoin <= 0.5\nsquared_error = 0.01\nsamples = 5598\nvalue = 6.099"] ;
1 [label="squared_error = 0.01\nsamples = 2474\nvalue = 6.099"] ;
0 -> 1 [labeldistance=2.5, labelangle=45, headlabel="True"] ;
2 [label="squared_error = 0.01\nsamples = 3124\nvalue = 6.099"] ;
0 -> 2 [labeldistance=2.5, labelangle=-45, headlabel="False"] ;
}